2239 100
576 0.04136509 0.29307777 0.029016925 -0.011456822 0.11703096 0.28235316 -0.020015951 0.03291371 0.14122733 -0.03409979 -0.32991877 0.105274305 0.07557745 -0.45637828 0.22371867 -0.09874183 0.08392731 -0.20912388 0.2626568 0.2023724 -0.31286222 -0.07878946 0.056197993 0.04141495 0.15900433 -0.31753188 0.008385266 0.042851128 0.014095659 0.16732237 -0.37502006 -0.21798588 0.39655557 -0.2712205 -0.28154737 0.21988273 0.036066115 -0.12434297 -0.105017856 -0.24107584 -0.044536404 -0.049856715 0.06701759 -0.15155782 0.22191133 -0.107171856 -0.074907295 -0.31758076 0.062037624 -0.05983383 0.11088897 -0.093807824 -0.1942214 0.122713365 0.09113638 -0.17223756 -0.123823605 -0.12304868 -0.10611804 0.085840836 -0.020304373 -0.20193139 -0.07199551 -0.053552695 0.2788321 0.2173256 0.06553008 0.014861158 0.021671461 -0.031415783 0.13581595 0.23691177 0.0604708 -0.04642197 -0.070709035 0.20239553 -0.0100080455 -0.0033219669 -0.2295428 -0.018491944 0.11282607 0.19889306 0.4142489 0.15660307 0.026262846 -0.012027653 -0.08825578 0.017309751 0.1785077 0.10526318 0.17681696 -0.28807315 0.3912414 -0.060050976 0.34879687 0.10116761 0.008936865 0.07104317 0.035407353 -0.08459397
684 -0.080985904 0.20072477 -0.14024362 -0.17252626 0.042642023 0.1693057 -0.2143918 0.26445848 -0.24707635 0.07228528 -0.018209577 -0.1681467 -0.047900945 -0.1287129 0.08514138 -0.09164313 0.12949607 0.20868099 -0.14681248 -0.30401382 -0.0010293464 0.05680682 0.21123488 -0.31438655 0.17596708 0.06613613 -0.19566691 -0.019177208 0.19332467 0.3402597 0.08739219 -0.045560654 -0.09675888 0.02687123 -0.0074368487 0.2490435 0.104451425 0.22034958 -0.09628465 -0.25104085 -0.254805 0.13429244 0.30878457 0.13587044 0.104918 -0.16907234 0.024338657 -0.016734643 -0.07623969 0.2470323 0.27464738 -0.03852249 0.0058798706 -0.20559065 -0.0067609036 -0.4829721 -0.022988051 0.18244842 0.44652563 -0.10738962 -0.27950597 -0.00077904976 0.08793036 -0.018296326 0.33478722 0.17302212 -0.073746614 0.1472409 0.030568937 0.16331156 -0.19565551 0.14094095 0.17485592 0.04754012 0.17231163 -0.11765516 -0.20501909 0.21187992 -0.08484483 -0.021146541 -0.08802732 0.10403433 -0.025507381 -0.2711367 -0.04644915 -0.3175029 -0.21855351 -0.054754622 -0.0764715 0.061620314 0.16100343 -0.15564957 -0.044749644 -0.18333633 0.11217307 -0.07657427 0.053029973 -0.26518565 -0.035861377 -0.15077922
291 -0.028847639 0.45211318 0.045586836 -0.17625155 0.057834726 0.17562409 0.1064521 0.40650368 0.15001664 0.11609937 -0.20094287 -0.056593437 -0.17337789 -0.3102834 0.06407751 0.16318595 -0.20217185 -0.015519981 -0.33109578 -0.51785564 -0.019847572 0.035376508 0.38961172 -0.1694585 0.045180228 0.10386995 0.06453781 -0.0070085144 0.1993912 0.12671481 0.21877043 -0.007670142 0.038154397 0.08707351 -0.18081114 0.048534237 0.31162596 0.22942202 -0.041079752 -0.07422273 -0.18558358 -0.24481724 -0.1975508 -0.057988625 0.0106545715 -0.005929612 0.26375398 0.13781878 -0.12627818 0.04205538 0.10104152 -0.021343833 0.16420496 -0.24520564 -0.15401112 -0.18855238 0.15051456 -0.29031876 0.097987525 0.05663525 -0.06001851 -0.15523675 0.021968316 -0.33194956 0.07708285 0.016283944 -0.04655575 -0.007298577 -0.08926263 -0.0015803725 -0.54421717 -0.012213971 0.005107045 -0.19312625 0.07892094 0.19585517 0.03311448 0.17055438 0.3311635 0.27459687 -0.30262107 -0.07478292 -0.15420748 -0.62314856 0.2506497 -0.06901449 -0.26712173 -0.00709228 0.034266263 -0.13015588 -0.015629947 -0.19270392 -0.10066384 -0.26938233 -0.07354802 0.29325268 0.13852169 -0.109421626 0.04336912 -0.33073586
668 -0.15115476 0.27130452 -0.31977817 0.04439389 -0.21981983 -0.056788836 0.1625406 -0.13107999 0.10431927 0.18448615 0.13486555 -0.038861692 0.12853162 -0.17922433 0.016702175 0.060015235 0.09798099 -0.11881627 0.044702053 -0.01040302 0.10506749 -0.17004226 0.2432899 -0.09457852 0.4907573 0.08355633 0.20544381 0.081062324 0.10650071 0.28560016 0.08605995 0.06263013 0.16937694 -0.04660884 0.017393334 0.24645492 0.022127988 0.094390355 0.07024623 -0.25684533 0.09346206 0.05447968 -0.013857737 -0.087312 0.07458794 0.020175228 -0.057805818 -0.021583349 0.24186717 0.09057034 0.11097536 -0.15923896 -0.3419242 0.012906483 -0.09090156 -0.4690023 0.04308449 0.027924746 0.026913414 0.08569456 -0.001271316 0.035329733 -0.18621925 -0.108195014 0.18477777 0.12764473 -0.15777679 0.11188588 -0.09408021 0.25390407 -0.24672343 0.20354772 -0.24288526 0.095827095 -0.13639702 0.27023652 0.16402112 0.005430383 -0.2834927 0.3187516 0.22699782 -0.11127994 0.39823422 0.07082925 0.13294718 -0.14659224 -0.05748145 0.28333315 -0.27037796 -0.1464255 -0.09461457 0.06410879 -0.033671495 0.13154612 -0.14793494 0.3815313 0.16654234 0.02547721 0.17295502 -0.08693659
666 -0.059037305 0.25422457 0.11152083 -0.15393479 0.05018929 -0.03301922 0.0075164647 0.2758855 -0.045850866 0.21816406 0.02178767 -0.0061673597 0.047178414 -0.05014474 -0.26646683 -0.16614154 0.10073943 -0.118832506 0.3608133 -0.20978515 -0.2696557 -0.29890695 0.052394036 -0.25196987 0.28434446 0.15068643 0.054499097 -0.30193207 0.0011079354 0.2297395 0.092642054 -0.24881665 -0.12279958 -0.17157583 -0.08693061 0.060518857 0.19773327 0.38089198 0.09448903 0.023483755 -0.08505024 0.035471268 -0.2650776 0.16971959 0.21740055 0.03263131 -0.12327599 0.068138406 0.11367048 -0.40729046 0.009529923 0.18985644 -0.23026682 0.11090893 0.060303528 -0.036036815 -0.0032906 -0.06613723 -0.01893826 -0.1133255 -0.3033642 -0.058889497 -0.047146533 0.03684538 0.15776119 0.23684497 0.02508399 0.028470308 -0.496873 -0.026342468 0.25121644 0.1196276 0.16828941 -0.0038867423 -0.22665215 0.5740569 0.12978205 -0.35509065 0.034086507 0.09172483 -0.053028516 0.01229726 -0.18253128 0.014699734 0.18419251 0.028581074 -0.07882685 0.37232813 -0.07151 0.18750693 -0.24688907 0.24178672 0.10279705 -0.10901647 -0.16011073 -0.19087908 0.276002 0.01710395 -0.16708525 0.039788954
719 -0.026745183 -0.14977829 -0.04021683 -0.31504434 -0.013806686 0.10456705 0.096285224 0.08319996 0.04530549 0.18251221 -0.24034253 0.03832481 0.21994574 0.04548307 -0.10309702 -0.24204846 -0.06619591 0.066539876 -0.028595466 0.31390718 0.036685903 -0.138424 -0.08337227 0.2786063 0.15750842 0.08285924 -0.013425214 0.030911254 0.046131425 0.24078727 -0.35664168 0.000553063 0.44737092 -0.15852606 -0.08654266 -0.09310816 -0.10136228 -0.3496223 -0.34355322 -0.04885413 0.10691968 -0.18593729 0.034818348 0.049198043 -0.06164256 -0.053937197 -0.08746644 -0.11674358 -0.050100036 0.021532962 0.13497262 -0.13152038 -0.22277781 0.045449432 -0.05493198 -0.20259717 0.1474102 0.020388296 0.124447085 -0.2353771 0.085692205 -0.18936813 0.30110398 0.1382675 0.29089728 0.1019224 -0.27094978 -0.21009816 -0.07593204 0.076909505 -0.035706528 0.20391293 0.03856224 0.06720596 -0.17283526 0.28727165 -0.090329304 -0.23029749 -0.016759519 -0.11561595 -0.032777954 -0.04735728 0.22270396 -0.2183654 -0.11052014 -0.13908564 0.0465313 0.25343072 0.39576367 0.09258781 0.07201956 -0.13662729 0.12633282 -0.030773284 -0.19159038 -0.057893686 0.30007416 0.045954857 -0.15807368 -0.2722505
664 -0.08680344 0.06248113 0.014468849 -0.046048325 0.15463714 -0.12677808 0.08998255 0.22624604 -0.08900396 0.44338512 -0.038323734 -0.29415113 0.3142509 -0.23684213 0.34274945 -0.17440183 0.10390173 -0.30969635 0.032106776 -0.37047535 -0.08884148 0.10795484 -0.06567342 0.16517699 0.17246006 0.03479258 0.011882037 -0.026308583 0.31989178 0.24214496 0.17221741 -0.050221246 0.19413464 -0.039806306 0.042206068 -0.043062244 -0.064969346 0.018468508 0.15107897 -0.19713183 0.10500477 -0.10083217 -0.23177513 0.12275157 0.114606366 -0.015596092 -0.14582606 -0.0514962 -0.080302104 -0.033961773 0.22924508 -0.15181188 -0.2571811 0.04970312 -0.07416757 -0.27682623 -0.03842491 0.0612525 -0.08869444 0.04799259 -0.25148895 0.11793164 -0.114840806 -0.02975838 -0.1253855 0.14930336 -0.0020390886 -0.08412408 0.04413662 0.3092846 -0.077242434 0.32650724 0.034866553 0.0086251395 0.1342591 0.339995 -0.09098182 -0.041977175 -0.106524706 0.016118292 0.37827733 -0.01840571 0.04238171 0.046672165 0.16722092 0.068816446 -0.18007289 0.13759927 0.1022151 0.06580679 -0.00688202 0.039403677 0.07976075 0.16471209 -0.24812578 0.17739992 0.04935201 0.11673087 0.0940753 -0.101730876
703 0.059348036 0.017715799 0.3616105 -0.24832328 -0.31542012 0.09612553 0.25539967 0.3105388 -0.20511664 0.18166433 -0.091404065 0.15981245 -0.015312617 -0.012391763 -0.04947194 0.08364073 -0.05009786 -0.16163266 0.3436171 0.1323622 -0.04267404 -0.12031858 -0.21378265 0.14788291 0.30505034 -0.18835701 0.05636227 -0.10258008 0.18237674 0.0989218 0.22610834 -0.18644357 0.19206557 -0.051132735 -0.06185337 0.1088609 -0.33114117 -0.21944547 -0.12351125 0.21865952 -0.3092904 0.041412916 0.10446453 0.013731697 -0.1898221 -0.012483711 0.116256855 -0.1551265 0.151668 -0.13054606 0.09531511 -0.08327847 -0.15432493 0.118743405 -0.036670413 0.017555768 0.0748385 0.009618142 -0.22081915 0.012208887 0.13534866 0.03675275 0.056380752 -0.18119164 0.34277275 0.27588075 -0.021305349 -0.0073898756 -0.099516176 0.20661558 0.048286665 0.15853171 0.08139242 -0.41410306 -0.20046198 0.4456115 0.023041947 -0.49642894 -0.024564786 -0.24506044 0.13491306 0.06547992 0.0118270945 -0.10068487 0.07127192 -0.103009775 -0.15179361 0.12156718 0.311167 0.2744532 0.044556078 -0.266177 0.2554529 0.025597414 -0.18266053 0.01420434 -0.18879811 0.2912906 -0.009597527 -0.3052223
858 0.24800862 0.16488107 0.08169838 -0.074140236 0.25685242 0.049923424 -0.41235223 0.25757363 -0.048157405 0.14547408 -0.36215448 0.007430368 0.090134986 -0.4518176 0.18087967 -0.037627567 -0.2455252 -0.12371667 0.09003926 -0.08763021 -0.070834406 0.044331234 0.1072836 0.063656054 0.26338783 -0.21945679 0.11643267 -0.16252501 0.027587961 0.14268754 -0.10648878 -0.008038853 0.12412221 -0.16238484 -0.113301076 -0.058754615 0.20440324 0.0185357 -0.0648731 -0.27393582 0.07733512 0.14132048 -0.27260977 -0.091371775 0.07076438 -0.10336546 -0.05688407 0.14279756 0.13207231 -0.095856026 -0.027526315 -0.2248287 0.047475465 -0.038703017 0.21326724 -0.25884113 -0.04211735 -0.16956486 0.0003656745 -0.0324452 -0.25650594 -0.26993823 0.27491292 -0.19651784 0.1134889 0.0324115 -0.107810386 -0.25594828 -0.019661808 0.021333447 0.005299614 0.19845577 0.19735482 0.02754177 0.13565955 0.351377 0.05960908 0.08000024 -0.3569265 -0.19695804 0.10298258 -0.3193984 0.39765522 0.33022258 0.15819418 -0.0970145 -0.37730908 0.22960232 -0.10441053 0.004784513 -0.08411012 -0.06617833 -0.15287483 0.030980157 0.034964602 0.15148413 0.09841094 -0.06569349 0.12114031 -0.030628413
892 -0.0009076084 -0.052153762 -0.38074785 0.07185022 -0.1884861 -0.14862837 -0.024741122 0.14036833 -0.092770755 0.042134132 -0.18150182 -0.15832244 0.16624811 0.29242045 0.16297543 -0.12475252 0.016009796 -0.1981875 0.01624961 0.0289278 -0.07534171 -0.22384061 0.14672644 -0.3169144 0.63595486 -0.02819251 0.020894634 -0.18637256 0.20982806 -0.08738429 0.18547864 -0.04841507 -0.023962379 0.18876587 0.0109386025 0.0993614 0.13325886 -0.15566586 -0.05019186 -0.32402682 0.1379565 0.19783738 0.12092264 -0.42485088 -0.07006659 -0.09109594 0.045848466 -0.075191416 0.016012793 -0.030649679 -0.12687406 -0.29048362 -0.23863961 0.2674506 -0.14489724 -0.44963184 0.14114566 0.051934697 0.15295212 0.18737693 0.0124931885 -0.00059912883 0.010436149 0.088501275 0.041472204 0.15552838 -0.044292085 0.13495247 -0.28499246 0.01530586 -0.32975888 0.48432186 -0.22765271 -0.15173306 -0.38717246 0.15041122 -0.2986023 -0.0036388976 0.13552381 0.2473539 0.009795853 0.28557223 0.04606619 -0.039203275 -0.11970686 0.22119793 -0.003813222 0.14180347 -0.05139638 -0.14614746 0.46554545 -0.20602648 -0.005247177 0.1268696 -0.172029 0.08065755 0.1739228 0.030618438 0.1790512 0.14716388
723 -0.14070384 -0.03205973 0.061111607 0.07902105 0.10006495 -0.17374822 -0.075955704 0.24960807 -0.04495856 0.13338688 -0.20059095 0.25829306 0.019088682 -0.260061 -0.16510384 -0.014574872 0.113961935 -0.020535162 0.34134445 0.22702064 0.08003573 -0.19344234 -0.020659646 -0.026011506 0.3099493 0.27555183 -0.24493334 -0.025678882 0.32356197 0.29340324 0.055478346 0.12019938 0.23331128 0.12978502 -0.07955764 0.13873024 0.10570075 0.053204536 -0.21269536 -0.06172749 0.14695229 0.17497028 0.0032373986 -0.28199673 -0.1797262 -0.19687322 0.26264068 -0.032989677 0.17357905 -0.06930511 -0.20349397 -0.30518416 -0.19510002 -0.18106125 -0.07718259 -0.14212301 -0.06042689 -0.23039274 0.19770482 -0.14222845 -0.21305834 -0.24391867 -0.06368136 0.38573906 0.07915895 -0.029866522 -0.13578646 -0.02967556 -0.09942835 -0.00038367297 0.012362255 0.12808503 -0.2517763 -0.086934105 -0.514645 0.1979567 -0.23612656 -0.27208868 -0.05865998 0.22136304 -0.010784975 0.10378693 0.15753652 -0.23269187 -0.22924517 -0.016463963 0.24042274 0.08485397 -0.18786259 -0.2928751 0.25359872 -0.14289655 -0.32908943 0.019578401 -0.3975831 0.26078653 0.07190575 0.074963726 -0.15515174 0.05523089
740 -0.23749864 0.10476702 0.15901938 0.23478821 -0.05231044 -0.33781603 0.026284797 0.13771223 0.09798242 -0.029070092 -0.3239959 -0.13451959 -0.14599322 0.08699798 0.04858295 -0.028935134 0.25753635 0.5123325 0.21888268 0.008845044 -0.08628825 0.24947779 -0.18124132 -0.3792386 0.17580035 0.15217315 -0.22515047 -0.049012605 0.061218213 -0.24268195 0.24579057 -0.10697736 0.3295037 -0.09498722 0.005062393 0.03067592 0.28035635 -0.18796077 -0.099862896 -0.09656384 -0.008965058 -0.1363671 -0.09700632 -0.06507418 -0.2956497 -0.13455522 -0.0017921329 -0.2379231 0.27321336 0.32563373 -0.110808544 0.0200785 -0.15543309 -0.067839846 -0.3252822 -0.21636239 0.012432463 -0.25127497 0.2576223 -0.35914233 0.003521153 -0.18687546 -0.066881895 0.09671785 0.07166262 -0.02389581 0.21878369 -0.06092196 -0.1031254 0.13164501 -0.030186431 0.2587319 0.18850194 -0.21239075 0.012795956 0.09665038 -0.25014612 -0.26554403 0.07402652 0.007846006 0.15317269 -0.39162904 0.122422494 -0.12235558 0.21353963 -0.06835012 0.18931493 0.20803614 0.11726912 -0.40727916 0.26967666 -0.3009419 0.024845075 0.15848216 0.056336816 -0.10651881 0.07785424 0.25721678 -0.2474595 0.064761095
762 -0.42512196 0.12719144 -0.059192177 0.21335165 -0.030578187 0.1480931 -0.048097797 -0.3041335 0.1452996 0.01685174 -0.10587228 0.0730379 0.124909244 0.0005172874 -0.2565094 -0.61070883 0.05888441 0.05823812 -0.20925696 -0.030676384 0.10395012 0.1294438 0.06745624 0.13235106 0.02911658 0.3704204 -0.075694315 0.16133907 0.0029655355 -0.20846088 0.20717113 -0.24282762 0.02826952 -0.1850903 0.0443471 -0.22227378 0.10780297 0.29643205 -0.074966945 -0.24947082 0.07895724 0.111948125 -0.049841415 -0.3338444 -0.39800778 -0.43681744 -0.30149403 -0.0032565466 -0.11068014 0.3597288 -0.109051324 -0.21139081 0.024803715 0.1699296 0.05088395 -0.47543034 0.15529405 0.030233447 0.18875226 -0.07590826 -0.2123816 -0.25348568 0.26350585 -0.049066037 0.1992579 0.087436594 -0.07223571 -0.04402273 -0.40615344 -0.050231934 0.24773529 0.26081854 -0.33999777 -0.472546 -0.17157176 0.0459522 -0.15078358 -0.32687092 0.021336252 -0.25630173 -0.22424078 0.11215428 0.077742815 -0.031623658 0.20301232 0.062228117 -0.17554824 -0.0022830793 0.08172769 0.16427363 0.09093666 -0.4650562 0.1030075 -0.09483286 -0.13122652 0.062058784 0.102599956 0.034214254 -0.36223754 0.08344481
718 0.025290105 0.21320549 0.06754013 -0.18659428 -0.03053339 0.013968019 0.10145475 0.23930247 -0.012912495 0.09878784 0.14499736 0.0606322 -0.059572153 -0.216827 -0.0645207 -0.06833822 -0.14782606 -0.022844315 -0.31228033 -0.1612575 -0.060028367 -0.18715335 0.1778449 0.08773647 0.22483778 0.16047677 -0.06909268 -0.02482852 0.26190275 0.22900073 0.009451551 -0.20559856 0.047752474 0.12757054 0.2243482 0.2495892 0.028836025 -0.12758024 -0.16488542 -0.124400735 0.014643406 0.19754565 0.22772607 0.074728146 -0.08647944 -0.08964616 -0.07960255 0.17562757 -0.023968646 0.28525877 -0.03496049 -0.057083406 -0.075103104 -0.0470387 0.16527244 -0.28959376 0.11687965 -0.036864717 0.2309105 -0.104566686 -0.15177692 0.27026257 0.3059323 -0.113782026 0.1714574 0.012744316 0.09180617 -0.24657075 0.05051139 -0.037863173 0.17093086 0.052087992 -0.10649612 0.12724139 0.12854579 0.060408812 -0.08362757 0.29365855 -0.08112216 0.0050206142 -0.10375767 -0.07767875 0.17144749 -0.25179654 0.095745765 -0.3567622 -0.07818162 0.11830789 -0.2318935 -0.08661483 0.008231555 0.08052618 0.088816 -0.025181567 -0.021389667 0.07556247 -0.12771288 -0.033702724 0.10286527 -0.07261623
766 0.24910544 0.19184412 -0.2388192 -0.09429448 0.09626852 -0.099208064 -0.17031693 0.07461965 -0.19699861 0.1357351 -0.2023729 0.09349167 0.07368703 -0.25386348 0.2889779 -0.023541441 -0.022187816 -0.023063904 0.045003295 -0.1570986 -0.231102 0.07253003 -0.06735437 0.106156684 0.28485012 -0.26900083 0.081944466 -0.11692017 0.24835704 0.07444625 0.12438498 -0.19576351 0.25940022 -0.27488327 0.1284621 0.048118684 0.017701976 0.0015066436 -0.076772384 -0.27033082 0.08020426 0.13633004 -0.14216743 -0.066155314 0.105202 -0.07244485 0.05523858 0.055995464 0.05381668 -0.10820126 -0.0018315741 -0.024092246 -0.08692585 0.04564706 0.02313979 -0.064927295 0.2545511 -0.014828899 -0.077387206 -0.0049593532 -0.21687151 -0.05240979 0.23375818 0.0015945265 0.025235878 0.09409998 -0.009828587 -0.17500325 -0.08953885 -0.049301643 0.065905936 0.46765947 0.26797563 -0.10618287 -0.14489624 0.2694425 0.014796602 -0.11781011 -0.2484387 0.27454728 -0.068671286 -0.12588206 0.1593106 0.22203381 0.0788104 0.029760685 -0.18415621 0.15836115 0.024708474 0.11712923 -0.15059958 -0.075004734 -0.14320815 -0.094200835 -0.02435506 0.1564995 -0.19691835 0.06356666 -0.11385775 -0.08394264
801 0.011627338 -0.11104925 -0.047273062 -0.11326076 -0.0833618 -0.0640533 -0.009794308 0.09068263 0.015817259 0.04283723 -0.20204017 -0.1493982 0.34785983 0.09673753 -0.26616183 -0.26829073 0.13294718 -0.0054783183 0.09977903 0.024847623 0.28978974 0.0037617683 -0.27951813 0.04357193 0.24334596 -0.018825838 0.04407807 -0.043447144 0.101309694 0.06042492 0.029239675 -0.13214949 0.24164526 -0.43680522 0.23906234 -0.09758927 -0.009946911 -0.059054617 -0.036998656 -0.075447045 -0.11481713 -0.20465055 0.101983234 -0.15388647 -0.024348164 0.072588526 -0.0050782063 -0.16652837 -0.3083079 -0.122655 -0.17870244 -0.26234832 -0.15583478 -0.007935986 -0.07302829 -0.15103218 0.056551576 -0.24797605 0.2530953 -0.11329428 -0.0052695232 -0.030397555 0.25951153 0.14238141 0.12869526 0.07943368 -0.105781995 -0.37474677 0.100018896 0.047492836 -0.12941268 0.1391633 0.2791029 0.0511993 -0.12955652 0.22238782 -0.25022227 0.13192573 -0.28861547 -0.11767052 0.07892747 0.05152144 0.18084823 -0.017257754 -0.037013296 -0.003022379 -0.20728408 0.18716697 0.21898007 -0.0057847905 0.11264683 -0.039863594 0.070749246 0.021450954 -0.066022314 -0.21157755 0.058187395 0.1427853 -0.14217758 -0.21901073
772 0.0019252968 0.08076428 0.21075876 -0.16722403 0.14118724 0.13961433 0.19829305 -0.03233283 -0.07418942 0.28548735 -0.17273617 -0.32352716 0.1558812 -0.33530852 -0.0351382 0.0044615907 -0.048154924 -0.058341034 0.02406406 -0.1472893 -0.1289026 -0.4177299 -0.12191931 0.059838664 0.33687705 0.2798117 0.24148841 -0.11493816 -0.15560772 0.19692385 0.2676347 -0.0648949 -0.012817525 -0.010515026 -0.0496584 0.14581521 -0.20741399 0.17580998 -0.14295216 0.049330868 -0.078928374 -0.21808453 -0.26984698 -0.0034905586 0.23355976 -0.0031704132 0.06777222 -0.053208537 -0.09695695 0.09636105 -0.14097391 -0.37397045 -0.21720609 0.048305742 -0.15142155 -0.16000389 -0.15906449 -0.19815531 0.07684432 0.079373054 -0.05236802 0.26294538 0.03863406 -0.23618664 0.14998971 0.005881306 -0.121492736 -0.13508151 -0.0727242 0.34053284 -0.15177836 0.051317517 -0.053743906 -0.15113701 0.17855503 0.2567976 -0.22911713 -0.21406952 -0.098506086 0.044873092 0.17761877 0.25039744 0.16042647 0.09974619 0.040178478 0.21119836 -0.035676897 -0.015608872 0.055039413 0.26370952 -0.041341018 0.08831971 0.32162085 0.0348226 0.07158088 0.14200307 -0.06741225 0.029660668 -0.1970323 -0.12522684
768 -0.20310913 -0.092100814 0.21374045 0.089397 0.20220132 -0.15523341 0.24396464 0.24976301 0.22715266 0.15026574 -0.4574001 -0.030653272 0.09473121 -0.0424986 -0.070419274 -0.2683135 0.089845434 -0.3197916 0.326533 -7.310084e-06 -0.006630919 -0.458674 0.13344511 0.03808307 0.3535616 0.44728762 0.10887861 -0.55030364 -0.04499393 0.028431429 -0.13740936 -0.11110755 0.2960237 -0.15607212 -0.046492364 0.05702544 0.05551964 -0.09335957 -0.20434459 -0.3994725 -0.0036757353 -0.021880643 -0.14848197 0.2577084 -0.17005703 -0.1083558 -0.2427137 0.20687245 -0.17864 -0.38207498 0.06681845 -0.22469287 -0.22171764 0.09753888 0.16113254 -0.04585462 -0.23804453 -0.14722523 0.16055693 0.25624737 0.043794956 0.26198402 -0.29204726 -0.075580224 0.3773274 -0.23307148 -0.029173618 -0.26164412 0.14280105 0.09558947 -0.35014743 0.036212977 0.27306834 -0.19533704 0.027931932 0.20971605 -0.08964978 -0.115741596 -0.12655787 -0.082729615 0.23312104 0.35268646 0.12143652 -0.018440234 0.17822954 0.14114167 -0.22870766 -0.08139361 0.32041883 0.049211893 0.045680378 -0.18537879 0.4547011 0.07805722 -0.15524149 -0.33510193 -0.0072723115 -0.07004944 -0.31765774 -0.29746675
289 0.07377768 -0.041200817 -0.04084867 -0.1772776 0.1346996 -0.1286637 -0.045656536 -0.046894263 0.0032544476 -0.12837969 -0.19556703 -0.24726875 -0.07376021 -0.38554642 -0.12457861 -0.17040329 0.13474338 0.24525966 0.026268108 -0.061831865 0.15272234 0.09932715 0.20722592 -0.36057952 0.051627062 -0.08513224 0.14552848 0.10444998 0.247553 -0.21955772 0.5580881 0.19889382 0.06705223 -0.11086231 0.1743195 0.10712353 0.047787394 -0.040549006 0.19644293 -0.23180936 -0.1887097 0.21683116 -0.040991288 -0.06772883 0.12600489 -0.07098713 0.01256063 -0.22909085 -0.14207155 0.31129742 -0.041244034 -0.04030439 0.1266905 -0.01905468 -0.025673121 -0.2442056 -0.18248923 0.006717471 0.21815407 -0.014597408 -0.0019637407 0.12934116 -0.15999006 -0.047310285 0.049468063 -0.0814927 -0.053146534 -0.24985172 -0.24644291 0.25744343 0.02034293 0.24093111 0.008758037 -0.22335543 0.18651961 0.45850202 0.1642038 0.08398845 -0.2667653 0.23061736 0.13874978 -0.27380693 0.31322306 -0.15507196 -0.027138114 -0.34439594 0.033037502 0.1805633 -0.30274436 0.12321974 0.053073626 0.12705316 0.09085362 -0.056422327 0.28936073 0.06995612 0.22746105 0.091537766 0.03359118 -0.01427411
683 0.24562849 0.19401488 0.11444197 0.021641409 -0.036303665 0.0019236633 0.21499994 0.107410595 -0.0007216462 0.2681427 -0.0021873605 0.13369451 0.023377648 -0.011361594 0.14379297 -0.5841546 0.061730452 0.1866304 0.29436132 -0.2621918 -0.06885742 -0.22484016 -0.043999694 -0.45346108 -0.018282142 -0.2636404 -0.12443214 -0.09012754 -0.1780924 -0.037685834 0.17994699 -0.024903562 0.15181814 0.127071 0.09336282 0.15108423 0.04553779 -0.13023497 0.07827502 0.13265552 0.016742388 0.21779524 -0.29898366 0.065662555 -0.18322666 -0.14408572 0.14941004 0.19848372 0.18377726 0.010583473 0.05191638 -0.15382454 -0.18726154 0.13514738 -0.014569676 -0.41248724 -0.061409805 0.020359626 0.24790558 0.02003782 -0.12373797 -0.13645117 0.23341146 -0.06155439 0.044245422 0.21606305 0.06234879 0.22564454 -0.054282874 0.07054906 -0.3205509 0.1786295 0.35897717 -0.06424428 -0.0007254268 0.12839271 0.08909527 0.12758872 0.17275897 -0.36685365 0.0063781803 -0.2395313 0.14422922 -0.4388074 0.31729317 -0.059447326 -0.09535722 0.05808378 0.04997359 -0.30774972 0.18805602 -0.11454652 -0.15391357 -0.2050786 -0.117293105 0.28004447 0.048643284 0.2933368 0.1526293 -0.12112828
806 -0.05292415 0.30005214 0.21190831 -0.17827691 -0.0770225 -0.35473412 -0.0933615 -0.06729253 -0.19213937 -0.19278674 -0.24928774 0.1833247 0.16141136 -0.28578204 0.2110521 -0.14348261 0.082021035 0.06935095 -0.14527304 -0.087720856 -0.07613189 -0.041702133 -0.008991661 0.0878746 0.27506214 -0.049440134 0.2984828 -0.2167327 -0.15880693 0.06361413 0.09872915 0.1629504 0.25903592 0.049967047 -0.08765467 -0.11265387 -0.055216856 -0.13525912 -0.11528885 -0.003836203 0.31108406 0.36239687 -0.24079773 0.10434719 0.14928882 -0.045378864 0.045693308 0.13352016 -0.29957166 0.04370337 -0.07655001 -0.22461522 -0.042953104 0.003291607 0.14383721 -0.20842013 0.12920867 0.018894086 -0.17208882 0.24184258 0.016160196 -0.06279348 0.1952175 -0.12121296 0.052133877 0.20445824 -0.17886566 -0.34512377 -0.22507979 -0.16051605 -0.14764164 0.20197313 0.16579829 0.017661612 0.021591114 0.38907576 0.097585514 -0.021911042 -0.09653246 -0.07261159 -0.11309352 -0.30460843 0.18981273 -0.28485113 0.1134245 -0.114514574 -0.1993779 0.23714945 -0.054177143 0.15392385 -0.12561744 0.2003527 0.27929583 -0.19440171 -0.23885223 0.0043851286 0.2602387 0.0019652417 -0.14067309 -0.20207202
814 -0.20125298 -0.072324075 -0.053316806 -0.23598196 -0.16509071 -0.16431808 0.16545026 0.21129695 -0.06788494 -0.18375781 0.098767415 -0.182846 -0.049712777 0.0067452895 0.020321462 -0.24646929 -0.089845434 -0.18496285 -0.19050631 0.32797593 0.1832453 -0.10978256 0.079258494 0.018933143 0.22481646 0.19607149 -0.16244347 -0.10841275 0.5209985 -0.14831674 -0.06109492 -0.23081003 0.10515488 -0.10325615 0.3905422 0.20963712 0.012424989 -0.03328411 -0.08074718 -0.26230288 -0.026487228 0.12480128 -0.059764784 -0.027610954 -0.46953836 -0.4385428 -0.37972802 -0.17750023 0.3052056 0.23338379 0.08709465 0.0022610691 0.015911162 0.20089297 0.13659343 -0.27975777 0.17227796 0.11144213 0.12948652 -0.15776815 -0.060096353 0.09295201 0.20884761 0.18936637 0.34016752 0.14216574 0.0012781471 -0.14613828 -0.11468712 0.23368813 -0.12258483 0.2255481 -0.16926304 0.07084296 0.045637004 0.14002474 -0.21650203 0.15400836 -0.28951615 0.18968299 -0.20338717 0.08905964 -0.06757237 -0.25070468 0.16511905 0.11869359 -0.09272163 0.0258942 0.07494963 0.022074291 0.20744742 0.13406302 0.082587555 -0.025539828 -0.041117627 -0.016725928 -0.013926472 0.12091423 -0.06930626 -0.36300033
994 0.014108913 -0.08146709 0.39565116 -0.07837961 -0.27692968 -0.123219185 0.2775101 -0.32581973 0.08987183 -0.033471428 -0.02388051 -0.11839557 0.19617756 -0.15716971 -0.36196798 -0.44306853 0.12554528 -0.091287374 0.2900019 0.02655235 -0.28590992 -0.060461164 -0.042750094 0.056626856 0.45831195 0.2687995 -0.027577072 -0.3353277 0.16190621 -0.018750753 0.28226575 -0.12532243 0.36058995 0.22525959 0.11298997 -0.08844787 0.36783412 -0.35633153 -0.15429346 0.0014494573 -0.052172728 -0.03999575 -0.39548302 -0.40247032 -0.022813741 0.12162538 -0.17104447 -0.30041164 0.112932205 0.119753815 -0.024433808 -0.3263069 0.04130606 -0.0660585 -0.07142732 0.01008452 0.32169867 0.04291799 -0.03569379 0.12941721 -0.41349646 -0.13187622 0.1244574 0.25313896 0.1925569 0.54625845 -0.06771215 0.18439595 0.14095208 0.018701902 -0.26940182 -0.007615675 -0.1825528 -0.26206356 -0.18702301 0.26732665 0.0021514636 -0.107296415 -0.0879839 0.20107101 0.029597053 0.027732348 -0.011732467 -0.013451993 -0.3291146 -0.30063727 0.2332163 0.0062963623 0.5387853 -0.051415768 -0.024566088 -0.1950814 0.22759493 -0.29630098 0.08174379 -0.08434368 0.3410472 0.24222754 -0.1533246 -0.026060607
824 -0.23452671 0.17122486 -0.11923938 -0.010074233 -0.15124942 -0.075105704 0.02492009 0.32365713 0.31109473 -0.13385871 -0.1425644 0.032394882 0.09377648 0.21286905 -0.13509616 0.035713006 0.23558965 0.124005616 -0.101960525 0.23883441 -0.17326705 -0.12380525 0.122730926 -0.11287909 0.266751 -0.13520716 0.3726625 0.00035214212 0.18223175 0.041554023 0.21441694 0.15679134 0.18507312 -0.058602247 -0.021376701 -0.07437676 0.12352627 0.069490835 -0.017486604 -0.41379476 -0.02025308 0.15612075 0.31379598 -0.41026503 -0.016534815 -0.19037007 0.03202903 0.20658061 -0.019927552 0.07531913 0.09502288 -0.3457157 -0.1018682 0.22109413 -0.052372355 -0.4426901 0.2598285 -0.040573485 0.02025477 0.18596911 -0.26754612 0.07303315 -0.14987174 0.24772216 -0.18807307 0.35015053 0.050462287 0.11530026 0.016234467 0.11206863 0.2773377 0.21022168 -0.15084088 -0.2292724 -0.4278207 0.17212354 -0.09372247 0.0852358 0.11047467 -0.031058291 -0.4503164 0.14057547 0.021732833 -0.11117418 -0.069519095 -0.12829715 -0.24455275 0.2625589 0.16050152 -0.11056354 0.37918815 -0.035703864 -0.014284526 -0.1772852 -0.32856816 0.13697189 0.017092595 -0.07129141 0.052125473 0.13725884
874 -0.17104983 -0.010068272 -0.13554403 -0.09553486 -0.23852965 -0.1001301 0.07307573 0.11610525 0.21167222 -0.07115092 -0.04539314 0.059744436 0.052176256 -0.08937939 0.007799106 -0.16414829 0.11645829 0.2832894 -0.090326436 -0.08569292 -0.10159714 0.06610463 0.009211242 0.18547143 -0.05719351 0.31689766 -0.12272801 -0.076670215 -0.10705619 -0.116298035 0.09590665 -0.3958459 -0.1277644 -0.34568766 0.3204303 0.32962248 0.28896856 0.07943494 -0.036436517 -0.27299127 0.12581508 -0.015280987 0.025295675 -0.21332563 -0.15533288 -0.15291248 -0.002326727 -0.03873532 0.18822874 0.15173824 0.03374496 -0.3359785 0.123158045 0.10988196 0.13989666 -0.07842425 0.29117528 0.033568565 0.4645237 -0.18629527 -0.31522697 0.06763436 0.2238848 0.03147509 -0.062324483 0.2940948 -0.14637849 -0.20438226 -0.13576335 -0.059755854 0.034246568 0.37778258 -0.07683816 -0.1004592 -0.17241657 0.22725329 -0.06660318 0.006740858 0.0702209 -0.1665657 -0.13465245 0.3551132 0.24611439 -0.05765639 -0.09024467 -0.038453024 -0.09165911 -0.020152943 0.04216688 0.014403611 -0.10850886 -0.44863456 -0.030924475 -0.1430901 -0.13407932 -0.09453768 0.18766129 0.1096587 0.121731065 0.20395958
1050 -0.16960728 0.18868989 0.046311166 -0.17006245 -0.067769945 -0.22518064 -0.13863224 0.21855608 0.073949434 0.04665875 -0.21798426 -0.12232148 -0.201625 -0.40041158 -0.054322664 0.08544245 -0.23238468 -0.107867315 0.011525143 -0.15605125 -0.097603485 -0.18405446 -0.073723644 0.36892673 0.32553136 -0.014350011 -0.51391023 -0.19235061 0.028861422 0.009673542 0.21982564 -0.09090886 0.08263489 -0.21121731 0.030473031 -0.1525298 -0.13606852 -0.3398905 -0.15866938 -0.1471553 0.0034915304 -0.10994959 -0.044616535 0.16276862 0.10787315 -0.07258394 -0.05756169 -0.5279533 -0.29744574 0.025918191 0.17731325 -0.2856859 -0.35074154 -0.06640975 -0.336961 -0.12611994 -0.30620033 -0.3661718 -0.015900206 0.21706018 -0.34127182 0.17953503 -0.077093914 -0.34236684 0.120851345 0.27936062 -0.19166225 0.32421884 -0.48562726 -0.16156715 0.19368176 -0.12012834 0.20952035 -0.3666541 -0.23772806 0.0012667992 -0.065690346 0.06799721 -0.17819029 -0.13584746 0.23725678 0.051606037 0.052329876 -0.27153632 0.07849535 0.1398874 0.024124335 0.15028782 0.12878872 0.08405301 -0.19616261 0.03574691 0.39251882 -0.11249595 -0.15413855 -0.096904844 -0.019844484 0.003081338 -0.043787967 -0.018764522
696 0.04245252 0.23166299 0.28756443 -0.6240487 0.25900897 -0.10181097 0.2181053 0.1819638 -0.2668889 0.10219105 0.05818026 -0.13898401 0.28604534 -0.08971639 0.120280765 -0.48979554 -0.009261787 0.1148668 0.0895763 -0.15552382 -0.48762885 0.20675318 -0.083354056 -0.38188308 0.1057299 -0.103010006 0.055889428 0.004899723 0.037955474 -0.12407635 0.099329494 -0.12947808 0.5244676 0.18128528 -0.076291025 0.23965761 0.114556625 0.2982025 0.10761189 -0.10180427 0.33996946 0.12131202 -0.19306393 0.22928476 -0.21429232 0.09500696 0.26847655 -0.05989108 0.10021218 0.06159139 -0.12132292 0.114527546 -0.11641904 -0.0121315215 -0.011734833 -0.2739198 -0.19003299 -0.30552265 0.18959586 0.18726353 0.19780494 -0.13387753 0.07544278 -0.26438266 -0.0061866664 0.2551184 -0.11041421 0.40288606 -0.10387264 0.041558836 -0.08348877 0.097504005 0.004516513 0.10868471 -0.15374874 0.087769695 0.021700235 0.15829584 -0.09560772 -0.11688315 0.12780365 -0.12062014 -0.008889986 -0.24879804 0.18084337 -0.01818238 -0.11064792 -0.049641557 -0.060139805 0.0734755 0.3253477 -0.109454766 0.02410039 0.15355594 -0.21277632 -0.03999293 0.14269064 0.13950682 0.03621244 0.09050622
689 -0.03248535 -0.1377328 -0.10923759 -0.011054822 0.143788 0.016882164 -0.053119533 -0.3612993 0.087354004 -0.120422535 0.18759264 -0.088068284 0.25496337 -0.13266775 -0.24564037 -0.5913239 -0.10431471 -0.11346854 -0.19769095 0.057796717 0.23965386 -0.32623497 -0.08934581 0.14936654 0.068051174 0.46309844 0.031554613 0.015059105 0.24441682 -0.032504506 0.19449131 -0.096865304 -0.46728927 -0.12932684 0.1790274 0.22161983 -0.13016756 0.33090276 -0.37633112 0.054012883 -0.039895695 0.27959618 -0.031091372 -0.1751322 0.16320165 0.12941681 0.05214471 -0.1044398 -0.051091153 0.19763242 -0.2758096 -0.46791425 -0.53623456 -0.48907664 0.2763524 -0.35112333 -0.092795804 -0.29019547 0.15404166 -0.09072949 -0.10806819 -0.2969738 0.21742788 -0.040796015 0.12879568 0.17251734 0.24852325 0.15064098 -0.09392011 0.26294747 0.15721954 -0.09407457 0.10950444 -0.023756023 0.1118451 -0.09265685 -0.32368836 0.058617227 -0.36335394 0.11755443 -0.031659693 0.06020249 0.084512115 0.24470568 0.058138154 -0.028701901 -0.29494256 -0.11562226 -0.008282057 -0.1979702 0.6462727 -0.48984018 0.35327 -0.17879899 0.3208713 0.06770675 -0.115133844 -0.46266016 -0.06038993 -0.07092671
747 0.070964515 0.17742121 0.45156112 -0.59647655 0.030780349 0.03807011 -0.08290172 0.22442248 0.017976526 0.5873412 -0.0075299623 -0.06276914 0.25985265 -0.09098442 0.0021365199 -0.060793344 0.22211908 0.0076507544 -0.09182096 -0.18133964 0.17067075 -0.07981806 -0.09662122 0.0976977 -0.021252675 -0.007272054 0.033473976 0.07432051 0.37032372 0.21384872 0.18733597 -0.13543232 0.37173614 -0.05052934 0.019457271 0.35042548 0.09642631 0.5826114 0.35212317 -0.6477836 0.3085523 0.06827594 -0.018715415 0.077914655 -0.007301933 0.05338778 0.31579128 0.038998637 -0.0755319 0.17634402 -0.16335692 0.13051109 -0.085305505 -0.14199616 -0.113630846 -0.07348686 -0.21482491 -0.37129807 -0.0030121761 0.23147705 0.08631163 0.33598226 0.03030208 -0.04043386 0.053305924 0.022545587 -0.07701762 0.08631112 -0.24719204 0.11245429 -0.007961444 -0.0148603665 0.11603995 -0.38257906 -0.18550393 -0.043541986 -0.111687854 0.29651216 0.16157797 -0.07391947 -0.20410477 -0.17152259 -0.15288687 -0.13686755 0.009068434 -0.0024600518 -0.07005097 -0.05394314 0.105775274 -0.0724839 0.13992465 -0.21261631 0.31764546 -0.12736 0.1289583 0.036685508 0.09116875 0.08203769 0.10727782 0.2509318
322 -0.13798054 0.24145241 0.015278876 -0.045329034 -0.34047422 0.27820733 0.051174797 0.46830693 -0.099877246 0.31633806 -0.016880695 -0.051787514 0.075095974 -0.19855317 -0.18619673 -0.13514782 -0.16756475 -0.06970353 0.20045435 -0.79990566 0.021832356 -0.04216585 -0.1384789 0.44007322 0.10717622 0.14380388 -0.0054164315 0.06965358 0.20757143 -0.39673042 -0.17471671 -0.22786069 -0.1269914 -0.3524584 0.3009685 -0.12920515 -0.008647912 -0.04720003 0.02292021 -0.18910237 0.09146841 0.091791086 -0.114314064 0.14804487 -0.04334814 0.25521314 -0.13032137 0.0039424384 0.15546624 0.38037637 0.14232334 -0.058982927 -0.2000706 0.05535514 0.13187364 -0.27183348 0.056228064 -0.1600366 0.18328288 0.16085558 -0.015194722 0.27306208 -0.18927826 -0.35250425 -0.068100736 0.17762454 -0.34981614 -0.08070241 -0.3451767 -0.10669405 0.1713281 0.41560602 -0.094309434 -0.2703886 -0.00670915 0.11701804 0.021508405 0.15713942 0.10251786 -0.15655039 -0.09177397 0.02711263 0.1643184 -0.0151486695 0.034236472 -0.09061738 0.3774459 0.078034915 0.09808164 -0.10316683 -0.07804616 0.027061615 0.16616276 -0.076350436 0.028566664 -0.0978772 0.15078469 0.08967899 -0.24156025 -0.028997255
993 -0.049934007 0.003483521 0.04014001 0.2100809 0.02319532 -0.26806578 0.16710876 0.19533288 -0.19985744 -0.12385477 -0.30341747 -0.27839488 -0.0012464353 0.0016235933 0.049405556 0.11979764 0.010758954 -0.40122157 0.23399043 -0.13259225 -0.13694105 0.06903052 0.40588728 0.11763259 -0.008244435 0.3373613 0.02348128 -0.22566931 0.19093706 0.38204882 -0.020560844 -0.3105865 -0.18503134 -0.32260078 -0.2758617 -0.05035323 0.11746502 -0.16828299 -0.07980709 -0.122957945 0.12238824 -0.15028843 -0.15296711 -0.08380103 0.17461191 0.22199215 0.13096783 0.17603324 0.3325801 0.46278903 -0.012918646 0.1827242 -0.12909721 0.0017380075 -0.17016108 -0.31719002 -0.06604452 -0.025526958 0.14584646 -0.031065395 -0.025218636 0.15799522 0.116435446 -0.05053073 -0.17137565 0.42461485 -0.08127252 0.0005251936 -0.26838708 -0.13802068 0.097301975 0.28117085 -0.09685589 -0.15993714 -0.054202173 0.28424174 0.08794659 0.14419629 0.11309167 -0.34660318 0.0072899503 -0.4018807 0.079141974 -0.005344012 -0.09953375 0.2984329 -0.033168044 0.00020951884 -0.26539618 0.14591339 0.0709163 -0.33574888 0.5110423 -0.33717757 0.042132404 -0.22783555 -0.10851378 -0.01442916 0.11616241 -0.19023612
926 -0.25155398 -0.21930833 0.011073127 -0.028194744 -0.1608599 -0.0060586804 0.26201233 0.2660799 0.03938258 -0.15301561 -0.28893393 0.015877673 0.38950023 0.007329575 -0.22852702 -0.3025523 0.0901636 -0.17537428 0.17970513 -0.14110753 0.18165573 0.07304819 -0.2687979 0.2693393 0.41695422 -0.13848165 0.024355361 -0.2279569 0.5897029 -0.17748666 0.05074018 -0.26022074 -0.13695718 -0.14450264 0.059974175 -0.058173407 -0.06255353 -0.042179268 0.23991816 -0.31170258 0.10259553 -0.009202267 0.23129646 -0.31409392 0.012486832 -0.10286985 0.16101687 -0.0025762287 -0.21674475 -0.32023564 -0.27442378 -0.24174036 -0.31992823 -0.017361233 -0.25433066 -0.35426584 0.20521252 -0.22650559 0.20454594 -0.085330665 -0.33310762 -0.020560933 -0.13890862 0.08366474 0.09049451 -0.040300045 -0.21714456 0.012721266 -0.2621039 0.026690384 -0.074070945 -0.16301765 0.23785114 0.054031465 -0.009137179 0.019952903 -0.25494 0.021855414 -0.054685064 -0.17545424 0.2083449 0.012894528 -0.031948004 -0.2821782 -0.32682016 -0.027848532 -0.1027369 0.13781053 0.059691496 -0.27966622 0.01717572 -0.11104213 -0.15741256 0.031145671 -0.14545058 -0.10633623 -0.2405544 0.36886373 -0.21537946 -0.04461919
355 -0.17783184 0.055308186 0.027603539 -0.18297769 0.12461895 0.031918686 -0.3545838 -0.0011944516 0.07933699 -0.37116042 -0.33481503 -0.14857033 0.072700635 -0.12335807 -0.101373546 -0.15306221 -0.10206962 -0.12343454 0.06762955 -0.66328955 0.103396654 -0.15484318 0.18301204 -0.14754929 0.1815262 0.1336494 0.143253 0.069431 0.21729681 0.1779715 0.1003994 0.07895945 0.26310375 -0.16184212 0.13236958 0.26953945 -0.30137655 0.11043109 -0.06358751 0.21267816 0.368283 -0.19912526 -0.045072816 0.30083448 0.23902644 -0.24800174 0.0011885677 -0.025933322 -0.05690335 0.21247923 0.27890867 -0.061770536 -0.0029827568 0.08378748 0.096890196 -0.08512996 -0.049377818 0.11779698 0.18293485 -0.013820984 -0.14215015 -0.11198858 -0.06960816 -0.19797143 0.08202678 -0.17916717 -0.0103197945 -0.22869036 -0.020530859 0.42493588 -0.050618313 0.05056565 -0.19154821 -0.17838807 -0.06912615 0.123963706 0.10413245 0.23024715 -0.17292367 0.07424271 -0.14163199 0.24167196 0.32631806 0.023512026 0.12453576 -0.25945503 -0.18229045 0.0023235679 -0.12949438 0.010425662 -0.10046394 -0.13332339 0.16912444 -0.10260296 -0.12574601 -0.28147656 -0.12851563 0.262652 0.041090813 -0.011097029
933 0.11686194 -0.036230575 -0.0006573881 -0.1850996 0.35492587 -0.13475743 0.36353403 -0.46481296 0.24109122 -0.07966282 -0.063288026 -0.23274735 0.25994354 0.05988604 0.126963 -0.15899667 -0.019300679 -0.4500243 0.124639355 0.017194804 0.17169748 -0.29733855 -0.09302635 -0.10514414 0.181121 -0.091431126 0.08194191 -0.037887186 -0.21361513 0.09375377 0.19442391 0.16441076 0.047495108 0.01695867 0.103728056 0.34058833 -0.12840149 0.1374735 -0.24914344 -0.06039736 0.16957314 0.117136054 -0.1995075 -0.017379658 0.17258932 0.0033237338 -0.006145307 0.04307455 -0.0034244657 -0.09603523 -0.326577 -0.24523476 -0.06852205 -0.14355779 0.09491611 -0.13259842 -0.022362152 -0.31921285 0.15816376 -0.0738032 -0.12061612 0.105471775 0.13806058 0.011580464 -0.06599479 0.0074575352 -0.075994186 -0.06337102 -0.2175091 -0.051904704 0.23974846 0.25083166 0.23493466 -0.04340399 0.15681545 0.20256032 -0.071819715 0.005581758 -0.026688572 0.11432296 -0.11607357 -0.12625742 -0.13386689 0.042394064 0.4041879 0.50039774 -0.008676103 0.28731444 -0.123307414 -0.047307067 0.13187023 -0.3641154 0.37020308 -0.42530364 -0.0684784 0.13664038 0.06723416 0.0018969178 -0.23833738 -0.25213003
737 -0.16645871 -0.04575064 -0.084892035 -0.25935537 -0.03234875 0.19998161 -0.14956138 0.108484425 -0.070259824 -0.09708202 -0.011855495 -0.023764089 -0.2785653 0.16252998 -0.022825131 -0.17228515 0.11833427 0.26696596 -0.21934049 -0.028548153 -0.07361545 -0.24137886 0.10241195 0.11158001 0.20104253 0.21113825 -0.15732571 -0.08158924 0.30782327 -0.021647887 0.06866915 -0.21555224 0.18602858 0.010537661 0.19010665 0.07776181 0.039895557 -0.00685089 -0.22954047 -0.10260778 0.06643927 0.18330887 0.106027834 -0.21210565 -0.39015478 -0.0798735 0.061703306 -0.12741667 0.006144575 0.14402625 -0.14052835 -0.16006787 0.1507055 0.1267242 0.14660554 -0.39170092 0.1327142 0.09873555 0.33618253 -0.12162067 0.0436438 -0.048987348 0.20745681 0.1663191 0.16756389 -0.0007423035 0.1752083 -0.28137 -0.24256659 -0.050801564 0.17469205 0.09693212 0.27118316 0.035685934 -0.14321366 0.10270035 -0.08617828 0.23518202 -0.12399755 0.044897776 -0.06257629 -0.03340036 0.007753951 -0.13650559 0.012257691 -0.04530997 -0.15290897 0.14893857 0.124094285 -0.12668324 0.11963927 -0.15695861 0.07935881 -0.06411822 -0.13235286 -0.13832934 -0.14411631 -0.13373142 0.081258826 -0.11299995
352 -0.011900531 -0.09723287 0.09728878 0.13274486 0.18522955 0.11420728 -0.045730714 0.23176095 -0.1737767 -0.14492396 0.13765188 0.08459134 0.2113318 -0.2336256 -0.059774477 -0.13608488 0.47848874 -0.26557547 -0.009569992 -0.1526692 0.1140482 0.052365977 0.32435903 0.10245097 0.25408643 0.070848934 -0.13551939 0.16301738 -0.08751268 0.12134426 0.3509734 0.054511793 0.4948131 0.22902651 -0.16229762 0.19548842 0.26565894 -0.0993243 -0.17865917 -0.047253195 0.35309866 0.0060030306 0.060638122 -0.051566582 -0.11229127 0.114475116 -0.20031534 -0.030683013 0.28956184 0.20328055 0.1164305 -0.12503462 -0.1351949 -0.22490345 0.46083403 -0.3552573 -0.030896949 -0.05125531 0.043356955 0.051023703 -0.05479249 0.14129215 -0.21550946 -0.17783162 0.02212207 0.07870127 -0.3538216 -0.009974624 -0.32904798 0.29852077 -0.010456647 -0.3723299 0.27522793 0.21933322 0.32422182 0.20325147 0.14008294 -0.13992065 -0.24295115 0.30426374 -0.3569855 0.1834272 0.07115442 -0.15077783 -0.45232883 -0.3309491 -0.16405103 0.2719759 0.04886322 0.0039773625 -0.19592564 -0.45823374 -0.086676575 -0.11891127 -0.09904456 0.1128402 0.12250314 0.40554547 0.28601927 -0.11540481
912 0.24180807 -0.11303347 0.14455625 -0.12090053 -0.02568821 -0.06233517 0.20820229 -0.098468885 0.127333 -0.1616073 -0.14124595 0.10867734 0.18163158 0.1884002 -0.15436776 -0.08623295 0.12228834 0.04210801 0.19240952 -0.00971789 -0.08314762 0.3629608 -0.044256013 0.15851365 0.04375737 -0.04210931 0.31501278 -0.041680273 0.4131152 0.100772984 0.041055333 0.01991306 0.14693877 0.04464181 -0.2057362 -0.092345014 -0.029755028 0.11070283 -0.033997755 -0.3999053 -0.022385623 0.15097396 -0.1550379 -0.38434097 0.14472492 -0.0073246486 0.025539752 -0.5445967 -0.20231166 0.03673969 -0.08117096 -0.3694312 0.045269523 -0.078284845 -0.21232723 -0.6774645 -0.13393234 0.049973764 0.35500294 0.096468806 -0.061702047 -0.10840567 0.0027802843 -0.14230017 0.27110097 0.048907608 -0.456354 -0.32834223 0.23366444 -0.09767395 -0.101039834 0.114686094 -0.023179157 -0.29048437 -0.19463408 0.04947991 0.31825763 -0.16798718 -0.021543095 -0.09596585 -0.23297752 0.15520215 0.28801456 -0.40119773 0.14640479 0.20725511 0.016506607 0.010728478 0.14525475 0.01935643 -0.043193348 -0.22197321 -0.074957006 -0.11376648 0.15236472 -0.1979303 -0.11191809 0.1453152 -0.16265725 -0.24784143
742 -0.07189449 0.058940582 0.2173461 -0.41762167 0.36606804 -0.17996445 0.278465 0.013907118 -0.4137933 0.047875892 -0.0021362603 -0.09486775 0.2243495 -0.29215384 0.36834517 -0.16053721 0.060452845 -0.0066437954 -0.16262901 -0.3229306 -0.31944147 -0.050989527 -0.03096638 -0.1768345 -0.081991516 -0.07331679 0.2185128 -0.16494302 0.43419224 0.10477919 0.05575043 -0.3377727 0.4766704 -0.13437924 -0.02505291 0.17458259 0.2454586 0.59342337 -0.24675073 -0.05968989 0.17805998 0.5288816 0.09282161 -0.021128569 0.02046379 -0.03074898 0.041082032 -0.07867738 0.110386364 0.16109698 -0.1836777 0.04483036 0.137172 -0.31041315 -0.28189495 -0.0586971 -0.028144145 -0.41838074 -0.002004964 0.15792562 -0.03768873 0.0074289185 -0.26596978 -0.2936062 -0.24676166 0.12564644 0.022330513 -0.11324381 -0.0931434 0.10776249 0.017068667 0.037992597 -0.07466389 0.15388806 -0.41191545 0.1460422 -0.150969 0.046365175 0.05556351 -0.3363467 0.12137724 0.014280965 -0.32064483 -0.054981176 -0.003000138 -0.13330095 0.044532713 -0.23718609 0.0783363 0.12650509 0.10448384 -0.031081485 0.14246882 0.030466659 -0.06896798 -0.07030724 0.3171877 0.26833898 -0.14746013 -0.20573191
865 0.029254274 -0.17336996 -0.09816667 -0.20891535 -0.040829115 -0.11480733 0.23180772 0.048880227 0.23913302 -0.062038668 -0.07825648 -0.021692349 -0.012488493 0.06765066 -0.18509853 -0.16036746 0.032815192 -0.06258433 0.082854696 0.08232456 0.2927284 -0.170797 -0.09947013 0.053380076 0.18667033 0.29957476 -0.2650935 0.20518707 0.16121258 0.20482293 0.0113146985 -0.22175908 -0.0952108 -0.22307457 3.8325787e-05 0.24808337 0.11878497 0.14667673 -0.22563113 -0.052341778 -0.28082526 -0.12032627 0.16959192 -0.28840593 -0.11096923 -0.20169732 -0.2314743 -0.15061617 -0.13059622 0.23431666 -0.111245155 -0.20823775 -0.20761871 -0.097696304 -0.04512575 -0.3651547 -0.021709453 -0.16738813 0.25214937 -0.0005640345 -0.09563679 -0.04387107 0.13175608 0.11337816 0.25130886 0.02381779 0.12059628 0.014743472 0.20134898 0.26080534 -0.11756836 0.08604509 0.03336755 0.05645336 0.14305845 -0.046309836 -0.38185248 -0.013449314 -0.12512805 0.3287031 0.060824953 0.2097132 0.13080497 -0.115886025 0.08848941 0.010417004 -0.07930974 0.019298527 0.31547242 -0.19670372 0.056660604 -0.3375564 0.2313709 -0.2332273 0.038884647 -0.17890547 -0.04265223 -0.0053444505 -0.21128203 0.001833324
697 -0.025812073 -0.23692012 0.17650414 -0.7335518 0.4843696 -0.36858892 -0.26793578 0.14836442 -0.3895064 0.13920599 0.10024566 -0.014992033 0.1477607 -0.21632478 0.07834182 -0.279685 0.15530968 0.08502674 0.007248553 -0.17153811 -0.07290844 -0.16586532 -0.06536303 -0.28769428 -0.0808393 0.326567 0.04163943 -0.119861536 0.07690143 0.0019202062 0.2101234 -0.123361655 0.19634607 -0.110561095 -0.12743512 0.112248324 0.24646768 0.32937798 -0.1426462 -0.35663962 0.25042027 -0.1700835 -0.17124139 0.083243504 0.012897941 0.19915213 0.086977966 -0.020814646 -0.10818599 0.16990134 0.027410736 0.18055247 0.049076974 -0.09249178 -0.119860366 -0.23421535 0.119445644 -0.5578683 -0.027397875 0.11763529 0.27510947 0.17948511 -0.45110783 0.033262737 -0.15813841 0.1889374 0.33850163 0.14793661 -0.07037755 0.2983969 0.032516457 0.19947597 -0.2096295 0.10107937 -0.075347826 0.0062277317 0.08496692 0.12598415 -0.10747997 -0.01481889 -0.014712783 -0.03705136 0.0015741204 -0.3691871 0.39866713 -0.17760147 0.2016799 0.032889627 0.13848507 0.14873505 0.16715729 -0.49353328 0.0030262726 0.11975663 0.11849083 -0.0138377035 0.15638392 0.107199326 -0.05414338 0.08319516
948 -0.02952222 -0.09872567 0.10043919 -0.1801604 0.14211419 -0.0535736 0.15764359 0.19247365 0.15142454 -0.030920263 -0.1473699 -0.21473148 0.10656397 -0.18118834 -0.061582208 0.002018426 0.007745919 -0.42361334 0.14697103 -0.22776274 0.21274868 0.021446634 -0.121174395 0.120521896 0.21258943 -0.012016253 -0.20221487 -0.08395628 0.2013596 0.01512625 0.15033652 0.03098608 -0.009130597 -0.24779327 0.13421984 0.2095456 0.027381847 0.07995162 -0.26550645 -0.16097485 0.15473093 0.23306338 -0.22421466 -0.09255875 0.14424406 0.24340706 -0.081249066 0.10824173 0.11701237 -0.24999006 -0.1350307 -0.31916386 -0.41883996 -0.09615215 0.15839614 0.039950874 -0.23077886 -0.4105312 -0.11721158 0.1451824 -0.23620375 0.20506167 -0.0042240066 0.06867906 -0.066941015 0.18776515 -0.04278556 0.106488004 -0.46002293 0.003593862 0.2992158 -0.10368199 0.4240786 -0.052954637 0.09822626 0.21516803 -0.06424998 -0.041804407 0.31869984 -0.059167825 0.30585334 -0.061464306 -0.0827261 -0.24065353 0.27282378 -0.019220462 0.29910597 0.28169283 -0.15083133 -0.08492365 -0.035766073 -0.14502308 0.27543324 -0.3117953 0.07363663 -0.04666594 -0.0056057507 -0.040827416 -0.18634094 0.05171137
964 -0.3330763 0.27207142 -0.008219429 -0.2258052 0.30892178 0.2802121 0.12821424 -0.30755052 0.06424661 -0.09946883 -0.024246352 -0.18537709 0.27071452 -0.25301167 0.28945538 -0.22690733 0.07536717 -0.0750021 0.02884786 -0.20291846 -0.089446895 -0.20195535 -0.16007523 -0.2192708 0.24013726 -0.34802046 -0.22084007 -0.034576185 0.14758061 -0.14920688 0.2515202 -0.11536801 0.28754202 -0.21542643 -0.16908966 0.09175318 0.03352809 -0.19244197 -0.03159895 -0.08122121 0.09725002 -0.16024293 0.26868668 -0.018064857 0.23112692 0.05132387 0.16568361 -0.2757432 -0.018652892 -0.14716646 -0.09027059 -0.05582865 0.04426359 0.19955385 0.077778265 -0.46124548 -0.46494684 -0.1690179 -0.2544886 0.1701301 -0.050715726 0.136194 -0.13063185 0.03301082 0.008911537 0.26078266 0.10237945 -0.21588667 0.16214272 -0.1307353 0.12214253 0.32147413 0.29728726 0.078201875 0.041621376 0.40189224 -0.42128745 0.106275335 -0.11793947 -0.30487257 -0.17257047 0.22751942 -0.015943358 0.16099918 0.048993442 -0.027579572 -0.15455662 -0.043952994 0.1365367 0.047768895 0.27248394 -0.16819951 0.387634 -0.059184708 -0.08156504 -0.21754172 0.30454937 0.11542604 -0.025945475 0.12297954
1268 -0.011371687 0.27553383 -0.09691849 -0.28004143 -0.07520726 -0.18991405 0.0024918318 0.35286647 0.0051356866 0.030212175 0.33112195 -0.29212698 -0.23843294 -0.12526955 0.17507285 0.0041655195 0.09421459 0.02773462 0.16917138 -0.08884192 -0.18594056 0.123954296 -0.051387463 -0.26473653 0.06781998 0.16343443 0.29491505 -0.15114366 0.4253661 0.14783551 0.29352954 -0.095806815 0.18315649 -0.3547456 -0.00057821383 -0.07981589 -0.20739245 -0.26925707 0.24795571 0.02494759 0.19719616 -0.18372239 0.24065919 -0.22617288 0.06008941 0.11247561 -0.13758643 -0.11534941 0.06597053 -0.32861954 -0.21576372 -0.38390914 -0.3224429 0.0019629924 -0.068162724 0.09731488 -0.045425463 -0.08161624 -0.021621384 0.010691781 0.030940814 0.13779317 0.19341563 0.52283424 0.17980471 0.09970286 0.01103563 0.034254327 -0.31968305 0.083518535 0.27455232 0.2018773 0.03707182 -0.44421437 -0.08756176 0.061081816 0.08877127 0.26114172 0.23001164 0.14497136 -0.09978247 -0.2387999 0.21678545 -0.15533866 0.16762656 0.18778633 -0.2437323 -0.2273245 -0.026793055 0.065953225 0.23691767 -0.11083064 0.4952794 -0.0458184 0.024781357 -0.17028767 0.05318246 0.19364524 -0.44184655 -0.69909334
913 -0.038730506 -0.010363191 -0.09237424 -0.31196085 -0.03911391 0.017302368 -0.20468862 0.20995604 0.02618795 -0.24336605 0.11762183 0.096542716 -0.19033746 0.07041196 -0.18346682 -0.04428292 0.2249423 0.34954038 -0.24657567 -0.09424611 -0.0879455 -0.05574333 0.06217289 0.17426327 0.03992137 0.31515238 0.08137754 0.0076427585 0.2974438 0.2731633 -0.03403294 -0.016988652 0.1712211 -0.06054037 0.17367174 0.15471241 0.21105058 -0.08371629 -0.13689774 -0.265467 -0.19707157 0.27678806 -0.11189324 -0.00811177 -0.31689414 -0.26134387 0.029122422 -0.031052807 0.010361517 0.15781978 -0.054179136 -0.20484485 0.2713379 0.07245619 0.40561816 -0.557541 0.031731986 -0.027282845 0.23578437 -0.2135842 -0.2611982 -0.0122111095 0.37590674 0.04137224 0.26919034 0.041495048 0.13539875 -0.27364716 -0.078963704 -0.07899659 0.22097695 0.26631853 0.32732114 -0.0015949841 0.03520801 0.023072222 0.1471605 0.08995317 -0.21055678 -0.09683386 -0.15989126 -0.21378024 -0.04968045 -0.34675542 0.06757168 0.01169077 -0.096207306 0.0062196977 0.19661245 -0.16701284 0.05647468 -0.17312261 0.012723689 0.07488681 -0.10603566 -0.16291964 -0.06470534 -0.07755811 0.10271277 -0.44194904
1113 -0.07397011 0.1264463 0.35356197 -0.10852914 -0.04375645 0.0035878366 -0.27499935 -0.002141416 -0.32796058 -0.3672395 0.020977521 -0.020222602 -0.28132457 -0.36011642 0.14745498 -0.03916436 0.29215673 -0.10778256 0.07916998 -0.11388678 0.03042861 -0.22616443 0.022910321 -0.091549225 0.16500874 0.027005864 0.4653901 -0.16380559 0.073991954 0.019834073 0.017343074 0.027301246 -0.30079234 -0.16478428 -0.28773424 -0.018560236 0.005084961 -0.017917262 -0.14082803 -0.117947534 0.065503284 0.003583572 -0.1468087 0.13328288 0.18194336 0.2283513 0.26642925 -0.40351334 0.020582294 0.074779175 -0.0368792 -0.15020923 0.063714236 -0.12491944 -0.014154032 -0.010907975 -0.070803404 -0.43766034 0.44133633 -0.13859963 -0.27137476 -0.018197222 0.16401833 -0.11391101 0.1404356 0.21838973 -0.20395376 0.11964334 -0.2550445 0.060184598 -0.2100626 0.115090586 0.40820685 -0.30943444 0.21840276 0.22317101 0.044377733 0.2192388 0.088258795 0.22315408 -0.09038222 -0.26952347 -0.12126641 -0.043334577 0.13768485 0.036717936 -0.137657 -0.12169892 0.12495566 0.15023726 0.24848513 -0.1908332 0.080985405 -0.26813027 0.0104763415 0.027338618 0.052100196 0.12140419 -0.1848143 -0.48751423
910 0.06447079 -0.08626182 -0.08238387 -0.22314523 0.08545554 -0.080546424 -0.007109756 0.15864669 0.21567477 -0.19744399 0.025573215 -0.08109486 0.13090454 0.19599006 -0.24845648 -0.1261021 0.2119768 0.019945392 -0.0015599882 0.041933484 -0.12801532 -0.15704547 -0.030740917 0.019402249 0.15254882 0.008892922 -0.46236572 -0.17305492 0.2925747 -0.28054306 -0.12471037 -0.2746361 0.31040284 0.16248386 0.14255501 0.07395279 -0.09951973 -0.015579845 0.13280065 -0.12221183 -0.23483431 -0.11967034 -0.032719556 0.022383293 -0.08173102 -0.29831284 -0.10976685 -0.10180519 0.10106749 0.083264135 0.06415912 -0.17771636 0.09347393 0.036763165 -0.013571711 -0.17889866 0.16792454 0.02806135 0.33425754 -0.13265583 0.24388199 0.1224825 0.3367394 0.19862641 0.06548556 0.046497762 0.111272044 -0.28068817 -0.25124723 -0.15904465 -0.0964488 0.008503162 0.116655156 0.00019008454 -0.15173946 0.10832875 -0.3746191 -0.258578 -0.00357243 -0.15120053 -0.26496038 -0.024875376 0.2185613 -0.32749495 -0.10138609 -0.22743295 0.31695208 0.28504995 0.3042224 -0.25775555 0.035136156 -0.3238413 0.07137061 -0.28047475 -0.25630072 -0.047495697 0.32463667 -0.12118988 -0.071891345 -0.43190733
1009 0.026957594 0.12644035 -0.03698641 -0.17063965 0.114982255 -0.27739254 -0.1056019 0.030046474 0.0006939901 0.036774363 -0.18037993 0.16287641 0.09520716 -0.17420416 0.21414614 -0.22090873 -0.021923574 -0.14094307 0.07953486 -0.1584333 -0.26094168 -0.038802255 -0.0046686367 0.35346964 0.13461618 -0.13172641 0.095666215 -0.13575207 0.32935297 0.21320134 -0.16594502 -0.13875212 0.2786578 -0.34845498 -0.050636087 -0.045144692 0.0077897366 -0.09864276 -0.007557522 -0.2893645 0.2492956 0.0007628392 -0.20805153 -0.2762243 0.025435794 0.14585923 0.17194639 -0.19008179 -0.071275756 -0.11411292 0.051499628 -0.21066195 -0.15767008 -0.14565577 0.12939696 -0.1437262 0.081122935 -0.09380781 0.09532482 -0.00643498 0.06616544 -0.053906284 -0.24416041 -0.109294504 0.12940715 0.19489379 -0.011038256 -0.043507814 0.19228387 -0.08284009 -0.1804978 0.16168089 0.1687861 -0.012772963 -0.13238905 0.19459826 -0.037391897 -0.13002256 -0.1688562 0.031075299 -0.08090264 -0.036328983 0.2089914 0.16221647 0.1780764 0.060570978 -0.32370266 0.18648858 -0.007779114 0.37982762 -0.21381278 0.08264358 0.18453188 0.06161648 0.17977956 0.16726714 0.1278656 -0.20707403 -0.042483255 -0.17052048
1044 -0.16399847 -0.238575 -0.025107728 0.22275233 -0.19442151 0.0018940873 -0.025076497 0.28199273 -0.2361076 0.32975897 -0.20739998 -0.15489028 -0.14041457 -0.3536349 0.059878375 -0.2922936 0.14760798 0.102522776 0.09830372 -0.101312205 -0.4625509 -0.12553063 -0.069166526 -0.13875759 0.29733965 -0.11455307 -0.027481811 -0.24576102 0.08138364 -0.005082591 0.05596933 0.36640528 0.25630003 -0.16945125 0.086838454 -0.0034661673 -0.025787676 0.15334082 0.06120057 -0.2766536 0.33530715 0.06526404 -0.14031528 -0.07992466 0.039356418 0.19971915 -0.11237836 -0.13575807 0.17354351 -0.20212212 0.3827975 0.13157044 -0.17570199 -0.122205734 -0.10777025 -0.51790947 0.012521631 -0.46868598 0.21215624 -0.15899462 0.022685446 0.014744171 0.4376298 0.0089815315 -0.118910596 0.13328134 -0.03397388 0.12143609 0.24063848 0.013946577 0.12044208 0.11028875 0.39258462 -0.07540594 -0.10980174 -0.060288776 0.13433889 -0.30809757 -0.23183946 -0.012431645 0.2289142 0.08882708 -0.31461746 -0.020445788 0.35147548 0.083869755 -0.14296244 -0.11521902 -0.14559855 0.1273737 -0.29778397 -0.029673344 0.33466813 -0.5685212 -0.3193144 0.24869138 0.2031703 -0.022882635 -0.01538511 -0.17906012
952 -0.101642884 -0.006215709 0.24976847 -0.30411577 -0.16820903 -0.18465899 -0.27236968 0.16706637 -0.026845034 -0.18392326 -0.10241991 -0.23668838 0.19606937 -0.12684427 0.029733863 -0.14016907 0.37137574 -0.028558353 0.2237949 -0.059203703 0.11669097 -0.23917797 0.04211401 0.22487131 0.21615387 0.09024433 -0.07999236 -0.094109476 -0.042488415 0.14514753 0.332205 -0.12339427 0.21971866 -0.20194729 -0.1603242 -0.14125495 -0.12597255 0.10534506 -0.3507181 -0.12819314 -0.10803325 0.06833944 -0.40660408 0.08531128 -0.18342863 0.139985 0.11131675 0.2723815 0.34282997 -0.23369087 -0.0048634494 -0.33579895 -0.06893115 0.46003714 0.16764076 -0.59651214 -0.18785585 0.53598154 -0.06485052 -0.15284124 -0.48268816 0.19424449 0.13702928 0.108661674 -0.053321157 -0.08079036 0.20989577 0.13385586 0.11207782 -0.15775463 -0.16118328 0.29245448 0.13359638 -0.14753804 -0.092406645 0.145346 -0.23008637 -0.25004753 -0.06312073 -0.28920296 -0.116767116 -0.048472833 -0.09581208 0.123449735 0.11650128 0.12337415 -0.10620769 0.12544534 -0.06949052 -0.29774904 -0.09463919 -0.10847676 0.32646298 0.11977862 -0.299263 -0.1281166 -0.040632624 -0.07137726 -0.2111727 -0.46701053
831 0.03206644 -0.1403786 0.054125726 -0.20524715 -0.18142846 0.090948656 -0.039192747 -0.042543564 0.028372943 -0.08013104 -0.19981845 -0.20006688 0.20895907 0.09630757 -0.2110872 -0.17517479 0.12924074 0.21530493 0.1006645 0.21749242 -0.23594122 0.07665085 -0.19470705 -0.11439911 0.2552757 -0.045116004 0.01287967 -0.23149745 0.15243053 0.09061981 -0.06846855 -0.093646154 0.011928096 -0.17728552 0.079181805 -0.13933243 -0.07644628 0.081249915 -0.09891642 -0.05166165 -0.044655483 0.1191831 0.078225955 -0.22656658 0.04712408 0.12292082 -0.058556516 0.056264523 -0.06483004 0.26040015 -0.05070848 0.015077301 -0.09828571 -0.033132795 0.004842269 -0.21052587 0.017458925 0.028443694 0.3518085 0.11586221 -0.4918259 -0.05295599 0.4251266 0.36141688 -0.009795283 -0.33958906 0.12343652 -0.10358337 -0.33204445 -0.033524133 -0.006459781 0.078236066 0.16993845 -0.12720333 -0.055303995 0.16123584 -0.2912426 0.0070646405 -0.052914094 -0.26274604 -0.13728009 0.23793224 0.23032586 -0.1722658 0.15944676 -0.077747926 0.12060656 0.40099284 0.08924733 0.2084749 0.049762223 -0.34495503 -0.32961252 0.09666421 -0.35781512 0.098167114 0.046717074 0.1729552 0.019798461 -0.17763598
891 -0.0026416215 0.28058383 0.089181066 0.18641599 0.1090266 0.1435549 0.004263631 0.28596053 0.20439675 -0.0109367715 -0.13684346 -0.42645073 0.1862794 -0.5199841 0.132529 -0.015868548 0.072603 -0.11857295 -0.34034827 -0.19771825 -0.16744934 -0.24584566 0.32502478 0.14592828 0.10875795 0.14405933 0.100150295 -0.068677925 0.050944407 -0.2662458 0.1611495 -0.2257332 0.081763685 -0.12793608 0.1231408 0.13187759 -0.07375728 0.060889 0.07567243 0.09021091 -0.08863081 -0.37015408 0.023211343 -0.22720444 0.063257016 0.30937093 0.21315858 0.10503695 -0.09973865 0.23112406 -0.0984083 -0.1425079 -0.12160965 -0.56011 -0.064868495 0.16023232 -0.03505517 -0.14786942 -0.30101457 0.07248843 -0.015026008 -0.14034706 -0.065565825 -0.47390237 0.18420169 -0.40497926 -0.088039145 -0.33889458 -0.006271022 -0.27518532 -0.54730505 -0.039983205 -0.055931773 -0.31703264 -0.014922513 0.15222672 -0.07603347 0.11222083 0.08567236 0.20369606 0.017292546 0.26233193 0.25006473 -0.60876405 0.4846887 0.04259525 0.15722992 0.08818286 -0.06914829 0.17396928 0.014834444 -0.183013 0.017119005 -0.18916735 -0.112456374 0.31451425 0.07800375 0.010608124 -0.0036614635 -0.35714224
1079 0.25353998 0.19136067 0.17577353 -0.32700256 -0.07399224 0.55817837 0.2094587 0.16199899 -0.538206 -0.14447528 0.05405588 0.04496234 0.043187942 -0.08143098 0.2697635 0.13757032 -0.09802537 -0.22104283 -0.012752817 -0.5501181 -0.35287288 -0.55453074 -0.11734592 0.020346204 0.24927974 0.07162864 0.032724254 0.10153239 -0.19467352 -0.11554193 0.25515926 -0.21390451 0.21665183 -0.23057693 -0.21027647 -0.3062328 -0.5577353 -0.05785439 -0.20870608 -0.17471136 -0.05428413 0.19285621 0.021263512 -0.193937 0.017043235 0.08545086 -0.020645976 0.05669159 0.0029540902 0.22486939 -0.048672345 -0.038102854 -0.12544371 0.20936395 -0.13182674 -0.38562623 -0.04335784 -0.26464477 0.11209466 -0.34236768 -0.10420999 -0.20611943 -0.1896494 0.38905308 -0.040041674 0.06143184 -0.09723673 -0.39579955 -0.41338208 0.07876427 -0.11343363 -0.09976374 0.1624407 0.14015257 0.17391509 -0.13573925 0.09716284 -0.1382931 -0.20153926 0.5376649 -0.025594808 -0.17754205 0.18359889 -0.15627651 -0.09288566 0.030380867 -0.1792724 0.22217211 -0.039525907 -0.20279336 -0.012856976 -0.19557597 0.00016762993 -0.08395957 0.20589724 0.22803956 -0.22646919 -0.18914509 -0.25962412 -0.19506167
890 0.17511721 -0.21444836 -0.05435913 0.11693257 0.063528225 -0.17130888 -0.13618311 0.090581074 -0.22246878 -0.028384268 -0.1932265 -0.07358282 0.23160441 -0.25281927 0.0103136385 0.0064059324 -0.2586542 -0.16626838 0.11128305 -0.2272178 -0.1677628 -0.22261347 -0.14849459 -0.28407294 0.22824685 0.0012650298 0.035986386 0.0071208007 0.17752777 0.284536 0.18259917 -0.09096801 -0.11678337 -0.1863372 0.016513688 -0.01453253 -0.15723482 0.075110376 0.214739 -0.061971717 0.21975102 -0.09902489 -0.093845315 0.17985262 0.19955622 -0.3794764 0.17790619 0.035397455 0.098588824 -0.0033213922 -0.022110473 -0.029651744 -0.25474805 -0.21913756 -0.092670515 -0.2117754 -0.35896993 -0.17832007 0.04848361 -0.10617483 -0.0048542363 0.06475011 -0.05260768 0.057013817 0.04771055 0.1688556 -0.10108357 -0.23180555 -0.074953444 0.114359565 -0.17352016 0.06469143 0.05057862 -0.33419102 -0.11767838 0.10519133 -0.039825324 -0.05416445 0.21134499 -0.090120114 0.12823473 0.2779468 0.17913835 -0.03859393 0.15707955 -0.33740395 -0.37972853 0.12500761 -0.2078077 0.3569199 0.16608965 -0.17218001 0.24574165 -0.19455495 -0.24527204 0.04564219 -0.050275 -0.043786824 -0.06303804 -0.08152025
1417 -0.12392502 -0.0037534644 0.27472594 -0.08178037 -0.1867713 -0.16961364 0.039533187 0.19234206 -0.09590907 0.37775898 -0.17766397 0.060659647 -0.111141324 -0.12134565 0.28977126 -0.46653712 0.13750023 -0.080158465 0.2287056 -0.13680702 -0.061613664 0.048223082 -0.1609752 0.120548226 -0.057205644 0.13409391 0.04678038 -0.05374926 -0.07013928 -0.08884549 0.408422 -0.18368076 0.29140303 -0.13021289 -0.07305219 0.15355258 -0.21738845 0.080701225 0.0036308279 0.09223711 0.108754896 0.121481486 0.30996397 -0.08822386 0.50331634 -0.2537068 0.2662945 0.058003522 -0.019060953 0.003134355 -0.03420314 -0.0977338 -0.17536408 0.03639786 0.090880565 0.048423328 0.00028799474 -0.23335122 0.36587933 0.3449415 0.12093186 0.21907802 0.26905397 0.27707052 0.08840228 0.15975612 0.41552466 0.09110627 0.04189158 0.12368315 -0.09877639 -0.21611692 0.17731486 -0.34574798 -0.063210845 0.39536694 0.012682099 -0.15284172 -0.064194135 -0.21749562 0.11597783 0.31874278 0.14223744 -0.29290438 -0.08459595 0.23163533 -0.37087795 0.16263674 -0.08822548 0.40893298 -0.08707737 -0.15330257 0.34624082 -0.32476902 0.027371878 -0.03623612 0.18478127 -0.07692919 0.14137577 0.09339606
1155 -0.028310966 -0.25781527 -0.046600185 -0.44560748 -0.17415093 0.0737361 -0.13688248 -0.04239976 0.3004147 -0.12808412 -0.18859883 -0.0472952 -0.1773677 -0.32884645 -0.11159795 -0.17484504 -0.07005569 -0.22733098 0.32977673 -0.15658511 0.0493782 -0.10936174 0.25699297 -0.20599292 0.09331512 -0.13594317 0.013715183 0.21989623 0.19660427 0.11496052 -0.14791924 -0.31254318 0.48501796 -0.13481429 -0.060897145 -0.15165123 -0.051102117 -0.013281262 -0.34948507 0.024603648 0.23785068 -0.07168408 0.058378395 -0.060360383 0.14845581 0.02375098 0.14518805 0.10876611 0.10658311 -0.16484888 -0.05322629 -0.27088377 0.23547502 -0.14630173 -0.22836404 -0.019257685 -0.1871621 -0.243674 0.25684592 -0.0062050414 -0.21510567 -0.12747946 -0.10131831 0.24993585 0.06653709 0.2108675 -0.124620155 0.07658129 -0.025630353 0.185454 -0.11734268 0.3794875 0.19216475 -0.1886538 0.033722226 0.109057546 -0.10305155 0.16997547 0.291618 0.13753434 -0.38318908 -0.35641575 -0.34972823 -0.1891219 0.08488624 -0.1430853 -0.18578702 0.30264536 0.34995025 -0.20416068 -0.14660999 -0.5463739 0.14111266 -0.3118079 0.096476294 0.056104615 0.080725186 -0.31525514 -0.1780438 -0.1310402
909 -0.02710332 0.34200385 0.10867101 -0.2593353 0.010510062 0.090589054 -0.1658335 0.19554356 0.16045414 0.113098025 -0.20359693 -0.08381744 -0.0374614 -0.373102 -0.009221281 0.14040211 0.04146305 -0.06861575 -0.27217603 -0.4169028 -0.060418185 0.18854816 0.3507208 -0.10062801 0.06288537 0.12655717 0.11010701 -0.042694956 -0.019771326 0.031954616 0.14878489 -0.1770343 -0.119342074 0.1158316 -0.16180423 0.1517868 0.09762181 0.12838049 -0.40628073 0.010479987 -0.11789651 -0.21597351 0.111367464 -0.16219254 -0.038020927 0.13227762 0.17564997 -0.05174752 -0.09414538 0.1836151 0.097535886 -0.09946377 0.13087086 -0.29183966 -0.049456954 -0.026653329 0.106776476 -0.07828273 0.15405728 0.09669648 -0.06510823 -0.09727987 -0.122583516 -0.30983666 0.3186842 0.08194002 -0.08969332 -0.035447005 0.08909344 0.27858508 -0.51387364 0.0324851 0.06797952 -0.37066978 0.17748795 0.21266167 -0.10047746 0.058851156 0.28967687 0.22388983 -0.2975433 -0.04089964 -0.23454611 -0.5900877 0.3988123 -0.108886614 -0.14721642 -0.111857414 -0.015329345 -0.11427529 0.10949855 -0.16050258 -0.031782527 -0.2964202 0.13533512 0.26547566 0.18720944 -0.17287798 0.008190819 -0.5090346
1010 0.13978562 0.24083062 -0.428907 -0.20905 0.25893256 -0.021716125 0.031038754 0.3280664 0.021192659 0.13729554 -0.08912093 -0.16496979 0.30570337 -0.16099524 0.20638134 -0.004459776 0.19684488 0.2432723 0.048979353 -0.17165169 0.10173485 0.23926821 -0.12996735 0.059142526 0.21076094 -0.11055283 0.04840103 -0.3101865 -0.03313784 0.17056619 0.42057687 -0.1498304 -0.2038392 0.1956883 0.16705349 0.5442068 0.23394845 0.08390211 0.048987463 -0.044204067 -0.027511232 0.18493026 0.43140107 -0.07631224 0.27743843 -0.12618469 -0.17958313 -0.2005899 -0.22636886 0.045245573 -0.00501378 0.11806476 -0.54407305 -0.30736277 -0.004017216 -0.24865566 -0.07757161 0.07460833 0.13149554 -0.06821482 0.21065898 -0.15473245 -0.041631315 0.26587126 0.26722673 -0.3543752 0.11397657 0.13076068 0.30611408 0.009329561 0.06166507 0.008399392 -0.17302819 0.13016269 0.22081321 0.21006519 -0.046947423 0.09461936 0.092357345 -0.055946946 -0.43682852 -0.049060192 0.0019555362 0.17000169 0.35643664 -0.1679567 -0.13596196 0.23589645 -0.026999813 0.15226825 0.20861734 -0.20163307 0.35208905 -0.4006705 -0.03993406 0.055265866 0.5610668 0.37321958 -0.06298639 -0.1263728
1035 -0.19788772 -0.24612342 0.055227313 -0.22994222 -0.13869087 0.012720988 0.10159864 0.16383761 0.027439864 -0.27010867 -0.088084765 -0.23535495 0.2272736 -0.3065457 -0.102109455 0.035826348 0.05828692 -0.060068883 0.17327867 -0.34082285 0.040732816 0.010342414 0.2193717 0.24887794 0.19011587 -0.03393771 -0.018303333 -0.015791329 0.0009980581 0.16432339 -0.17721356 -0.17659947 -0.1286239 0.33805874 0.18662392 -0.013493375 -0.24312167 -0.14948498 -0.10732307 0.120549135 0.2943822 0.11001814 -0.044012308 0.21346278 0.08037135 0.004866573 -0.054493662 -0.16945587 -0.067615755 -0.05383588 -0.034394834 0.22631574 0.10143674 0.12512888 0.20766215 -0.13250518 -0.051351927 -0.20188665 -0.1726771 -0.20986213 -0.21108332 -0.42899105 0.061949763 0.11303508 -0.10610929 0.38148734 -0.18533467 -0.2553871 0.035844717 0.13483387 0.12419858 0.30070516 0.33263415 -0.50934505 -0.05555689 0.17449656 0.1009193 -0.08622753 -0.16332668 -0.114031956 0.23123483 -0.123171784 -0.1236557 -0.08802466 0.19081607 0.20578575 0.026991291 0.21724077 -0.32451653 0.16204578 0.467988 -0.38260114 0.3886653 -0.11467603 -0.18509683 0.31627905 -0.07860036 0.2746751 -0.33697602 -0.11437214
335 -0.00079408713 0.032776613 -0.019938337 -0.24766183 0.079795666 -0.11098899 -0.0553806 -0.097038984 0.075859375 0.08020185 0.039704554 -0.17433396 0.15574166 -0.3226545 -0.5358975 -0.38504142 0.12526636 0.28731924 -0.21593818 0.13163236 -0.24394414 0.038050745 0.30133465 0.09044104 0.45190915 0.019153783 0.2142122 0.13828945 0.14856938 0.18368816 0.26257604 -0.39862135 0.048733156 -0.23363172 0.10228544 -0.25013822 -0.20445023 -0.11912644 -0.027384546 -0.009270681 0.032555282 0.09984874 0.08785068 0.052356474 0.114057824 -0.22804072 -0.108657055 -0.1390932 0.23180959 0.2538552 -0.078412235 -0.2711052 -0.25781244 -0.24665697 0.09208626 -0.32715014 -0.23781909 -0.187163 -0.113565065 -0.031663172 -0.04989078 0.27675265 -0.19525759 -0.28702334 0.22051759 -0.13464363 -0.059381206 -0.29757744 0.2744442 0.034787126 -0.15564768 0.17432556 -0.006593189 -0.1282325 0.29405695 -0.066918135 0.2459364 0.4008348 -0.060146365 -0.38490218 -0.23742364 0.14286855 0.18121086 -0.24434157 -0.09613713 0.21490015 0.048490316 0.4503074 -0.32597002 0.14811042 -0.21145925 0.14890207 -0.056506008 -0.1625919 0.32486185 -0.13872072 -0.14323352 0.1816276 -0.10336816 0.049656875
1072 0.025834514 -0.12660262 0.16347745 0.002743255 -0.10480586 -0.38759658 -0.18788923 0.41053486 0.1254814 -0.1014317 -0.5107538 -0.01465542 0.015829561 -0.04371752 -0.028132536 -0.19852833 0.24013573 0.3962658 0.21188392 0.27672294 0.010388925 0.032591127 0.018073358 -0.015580723 0.08968286 0.076185554 0.40568897 0.044324223 0.2831992 -0.39542577 0.62948394 -0.13593975 0.024985163 -0.14130424 -0.1534467 0.23553151 -0.023826469 -0.054237172 0.0073375297 -0.22183843 0.04066795 -0.12553613 -0.11746845 0.01687359 -0.21025406 0.034734532 0.14340457 -0.41888034 0.032378126 0.285332 0.028791433 -0.12280686 -0.092614315 0.09253541 -0.2066897 -0.19056249 -0.16765961 0.08978334 0.33083013 -0.40529832 -0.07660046 -0.029506247 -0.0055596544 0.008877676 0.045885693 -0.24557473 0.122232825 0.10815627 -0.009285235 0.1843296 0.04430467 0.30126724 -0.06897182 -0.16356291 -0.09742231 0.09248491 -0.47547972 -0.42102906 0.15337811 0.09484913 -0.067543715 0.13153788 0.10618489 -0.14419895 0.055205323 -0.13479677 0.345622 0.022281671 -0.29528925 -0.10378151 0.124093644 -0.17392232 0.1402247 0.06473677 0.27201235 0.14224277 -0.11471777 0.14248763 -0.2918681 -0.3092905
726 0.09149898 -0.2161095 0.034561455 -0.3755971 0.29481417 -0.30968514 -0.13041143 0.047972433 -0.13207875 0.4012797 0.055270977 -0.20822346 -0.12036415 0.15741722 -0.010585257 -0.070120275 -0.28224176 -0.08487933 0.048641767 -0.1429925 0.17702873 -0.45014814 0.15145294 0.102387615 -0.012717239 0.43174887 0.018329259 0.08725011 -0.15412736 -0.2011493 0.02436545 -0.11923622 0.036974546 -0.048034437 -0.0026913094 0.05064965 0.29485348 0.1500357 0.075618625 -0.070183076 -0.0339005 -0.08494998 -0.37823647 -0.15248163 0.3818838 0.28618982 0.2991812 -0.14957431 -0.0974169 0.08592414 -0.16270559 -0.12440886 -0.39186642 -0.062231515 0.102013275 -0.24823058 0.37345272 -0.17481211 0.17558335 0.16521737 0.08704393 0.10760269 0.004947198 0.119596735 -0.1442966 0.16995236 0.2493664 -0.12504704 -0.21371473 0.22378619 -0.04190704 -0.0380476 -0.30553916 -0.059883185 0.24601886 0.14414938 -0.15601277 0.11228728 0.009309734 -0.07485572 0.057407286 0.12633632 0.21712668 -0.13011682 0.4953046 0.07477356 0.30890176 0.12346314 0.25013295 -0.22935833 0.029132621 -0.63565034 0.0064712423 -0.2291132 0.21874167 0.28941447 0.2101785 0.18644269 0.015131531 -0.34462905
759 -0.15862356 0.087403156 0.015704617 -0.1452808 -0.21375704 -0.04721993 -0.5253886 0.17451021 -0.2940411 -0.06836985 -0.24341479 -0.067126624 0.2925482 0.05506397 -0.005577062 -0.12139578 0.367591 0.37800124 0.040171314 -0.11882518 -0.25038123 -0.16113952 -0.07411697 0.35093552 0.2676694 0.10207306 0.21138921 0.069358304 0.07225229 0.1132112 0.49533325 -0.17940207 0.2083602 -0.1475458 -0.088777 -0.05114345 0.32463878 -0.12700674 -0.3841435 -0.11277001 -0.14535798 -0.01653409 -0.22688305 0.011907982 -0.28129375 0.10327559 0.37909213 -0.008076523 0.13365375 -0.07554005 -0.0057720807 -0.28397372 -0.031183312 0.061473552 -0.09270525 -0.6212638 -0.004186494 0.2799131 -0.006669998 -0.38134027 -0.2848423 0.044254217 0.24512947 0.074458905 -0.08324188 -0.09111384 0.18366207 0.14405143 -0.08241747 -0.10923562 0.07315014 0.12726793 -0.11986203 -0.031703193 -0.13293241 0.21181805 -0.5629942 -0.40292946 -0.053009756 -0.06883271 0.11160987 0.024251753 -0.2620867 0.22731194 -0.24588585 -0.043288745 0.017397106 0.42141208 -0.08944847 -0.0833035 -0.022099791 -0.12245594 0.13373972 0.20241167 -0.118522294 -0.10529014 -0.13660909 0.06649645 -0.032017615 -0.33985537
986 -0.06695659 -0.08342331 -0.036131505 0.020517392 -0.039372884 0.15081766 0.21006559 -0.065803215 -0.051157463 0.049092066 -0.3228345 -0.27412215 -0.18107922 -0.07181301 -0.24806006 -0.0141788125 -0.001727862 -0.03869054 -0.20290425 -0.09234876 0.14846693 0.21884462 -0.20595948 0.04056983 0.3049731 -0.26347154 -0.13395718 -0.2138197 -0.0022295755 0.009155095 0.35187927 -0.07347936 -0.097268976 0.04881313 -0.21179952 -0.08298356 0.13079986 0.058235083 -0.2891595 -0.21921587 0.3637116 0.17320967 -0.23493803 0.11052195 0.27773198 0.0139574725 0.46169302 -0.23260741 -0.013720451 0.07267749 0.011389496 0.12419485 0.11233759 -0.07878616 0.09557276 0.002829824 -0.003147598 -0.37582877 0.1739428 -0.027019706 -0.30364373 0.27038506 0.028410852 -0.22611131 0.34633115 -0.08176456 0.26037434 0.23038836 -0.2831789 0.089180686 0.09931234 0.087739944 -0.108736835 0.14493491 -0.4010837 0.5141319 0.0770927 -0.06112687 -0.09730562 0.150189 -0.3696303 -0.031103445 0.27285185 -0.06583176 0.29834008 -0.04351735 -0.08306395 0.084741406 0.051356085 -0.0709409 -0.306268 -0.18092975 0.43416372 -0.08175964 0.07087646 0.02456452 -0.27054158 -0.22487004 -0.055532146 -0.39238495
1348 0.22539286 -0.00934267 -0.017633565 -0.15121976 -0.04427208 -0.21825267 0.0004500882 0.2878395 0.04580979 0.040306106 -0.079755016 0.33735484 0.41834706 -0.20700054 0.006262828 -0.15580414 -0.28785637 -0.048135545 -0.04252511 -0.13992201 -0.20670767 -0.0074937087 -0.003430113 0.19276644 -0.164926 0.056610607 -0.13231112 0.004559777 0.42923525 0.0072936933 -0.3479308 -0.033006523 0.17967373 -0.43357524 0.22934227 0.09541986 -0.26062015 -0.12248612 -0.14904533 -0.35169142 -0.14319816 0.3013686 -0.05686545 -0.10272453 -0.026674293 -0.13741736 -0.39160928 -0.0145095475 0.030056672 0.32102302 0.13134505 -0.03128741 0.010648095 0.110592104 0.069283776 -0.37897146 0.13773073 -0.00810385 0.08551946 -0.2604904 -0.050609346 0.021091022 0.1609449 -0.28932384 0.2772222 -0.008143192 0.11920876 -0.30195272 -0.27910116 0.3578 0.13753247 -0.041176464 -0.0815862 0.2528838 0.14914535 0.04893868 0.11123503 0.16703999 -0.066606246 0.18397284 -0.002465979 -0.1309787 0.054068264 -0.32102078 0.30874324 0.055741135 -0.5616 0.16214979 -0.13449515 0.16841292 -0.11766308 0.008191705 0.036262248 -0.00010469014 -0.18492852 0.09653382 -0.075418614 -0.078396745 0.113476016 -0.077193
1101 0.063252956 0.10758075 0.083333224 -0.27769285 -0.21441919 -0.21342143 0.10606504 0.008873084 -0.1015614 -0.060816392 -0.12782575 -0.3033785 0.19598526 0.0010318701 -0.02754562 -0.43664828 0.35434598 0.26501724 0.08716894 -0.06086913 -0.20172764 -0.1384486 -0.19865848 0.29644266 0.108725116 0.05652496 0.011435801 0.19657011 0.046143238 0.24459657 0.08361466 -0.011894867 -0.2583207 -0.3210483 -0.26363873 0.25151014 0.118696205 -0.0103905285 0.071653254 -0.105452985 -0.18031321 0.11932116 -0.11472415 -0.14231867 -0.2929085 -0.6113129 0.23893629 0.2003199 -0.17205584 -0.18913694 -0.004580595 -0.31076896 0.1094528 -0.3205545 -0.0005918138 -0.41565695 0.008869458 -0.08207507 0.038777247 -0.26038405 -0.1339196 -0.07696878 0.09300146 -0.01800509 0.2891511 0.11520548 0.050374996 0.015786938 -0.18567586 0.11889682 -0.2950226 -0.13483626 -0.13008818 -0.49282753 -0.27613494 -0.18135834 -0.52947974 0.097313955 0.35955653 0.23000206 -0.097575046 0.09943375 -0.11724708 -0.06681654 -0.29555395 0.13754624 0.26867038 0.18990912 0.11372257 -0.025629787 0.14526568 -0.7634372 -0.20441689 -0.055658516 0.46466094 -0.15833977 0.11540567 0.08531171 -0.04571776 -0.11402858
736 -0.019717379 0.28163734 0.13697898 -0.0617732 0.12968908 -0.10031615 0.28081068 0.060288053 -0.054763444 0.19919147 -0.083657146 -0.25872174 -0.1367874 0.2613015 -0.05121105 -0.29706773 -0.26901934 0.077704445 0.28608873 -0.11345532 -0.26196638 -0.0036105854 0.14117602 -0.04482066 0.1651839 0.19032623 -0.121423006 0.09873363 -0.16662328 -0.3024241 -0.013850523 -0.17238018 0.28308114 0.1832669 0.064488575 0.16441019 0.2977489 -0.03895845 0.078315854 0.15584871 0.03585559 0.18339078 -0.4292933 0.026214113 0.11900167 0.056505255 0.476903 -0.013098917 0.058538027 -0.0074899835 -0.3039644 -0.18495424 -0.48302174 0.022110565 0.19343434 -0.3330722 -0.036659114 -0.068055816 0.49185848 0.21146218 0.109268844 -0.16062614 0.41164276 -0.1806543 -0.22681753 0.23321284 -0.106503434 0.101356186 -0.058466673 0.056324832 -0.059061527 -0.10987784 -0.117591605 -0.011636606 0.1848298 0.21747263 -0.13934119 0.24667814 -0.10972331 -0.057411727 0.20106898 -0.19355598 0.036228206 -0.1064269 0.3965867 0.15605411 -0.2750291 0.028451795 -0.08459873 -0.32428044 0.2419592 -0.21697256 -0.12276982 -0.2858195 0.036546756 0.027695639 0.18630834 0.17340517 0.030176405 -0.24170123
951 -0.5198185 -0.044159047 -0.06851609 -0.18492283 0.051327508 0.04739321 -0.073744215 0.09187238 0.22095597 -0.10510796 0.033942167 -0.041354027 0.10982693 -0.26131994 -0.05692855 -0.017843643 0.256167 -0.2493178 0.05778024 -0.29529944 -0.42431313 0.1415721 0.17819579 -0.020660149 0.16184035 -0.09238052 -0.19590233 -0.036555845 0.38851413 0.020393828 0.26537424 -0.26866573 -0.057314508 0.09148103 -0.10604648 0.1642854 -0.04265783 0.18843772 -0.25221857 0.014900186 -0.16760388 -0.15652454 -0.32579288 -0.25665945 -0.016312834 -0.013951187 -0.054927748 0.23972371 -0.05210679 0.3561336 0.32153636 -0.13879584 -0.15231238 0.16615997 0.1014836 0.009536922 -0.006757506 -0.18235448 0.1939816 -0.35633206 0.11756009 -0.31977877 -0.055960935 0.03142061 -0.015071503 -0.03142265 0.28487477 0.124867424 0.09394822 0.17618553 -0.12929916 -0.17929748 0.029583553 -0.011218063 0.030477002 0.32540676 0.019666245 0.1587357 -0.0005993481 0.12900905 -0.339943 -0.060224913 0.20683432 -0.2446926 0.2838037 -0.15017292 -0.06969302 -0.08346112 -0.33881184 0.08865256 0.057385486 -0.0640917 -0.025283014 0.25418907 0.2368959 0.2655353 0.06344958 -0.03391967 0.11708705 -0.41574264
885 -0.109876774 0.13002773 0.044183712 -0.29649645 -0.16765295 0.004481035 -0.18364725 -0.13330737 -0.1049917 -0.10131287 -0.18619688 -0.16504832 0.2878401 0.1739174 0.04547488 0.085441604 0.30867535 0.21743752 0.08857835 0.118595496 -0.2122504 0.015662098 0.10352535 -0.24433194 0.1381347 0.5733246 -0.07557494 -0.2897642 0.27744764 0.25517708 -0.1107706 0.060039315 0.110504285 -0.062370557 0.28034347 -0.1468304 0.04373478 -0.15080889 -0.10225675 0.06529375 0.01951593 0.041546497 0.08901979 -0.22131087 -0.061618477 -0.30807453 0.00891482 -0.035753455 0.10433931 -0.09627562 0.22356248 -0.33231634 0.047188643 0.03163445 0.40291175 -0.3998883 -0.17260243 -0.11184076 0.10093105 -0.04307037 -0.09856461 0.18536249 0.22432356 0.07031762 0.17702273 0.05561463 -0.056004565 -0.3060252 -0.24193323 -0.11183313 0.32159957 -0.25172877 -0.14701097 -0.1030644 -0.082708836 0.2320154 -0.03460189 -0.27251112 -0.18425588 -0.20270385 -0.09913001 -0.24353807 0.052513808 -0.2030332 0.19412032 0.0062191146 0.120748475 -0.00043992486 0.21758612 -0.21816453 0.30457625 -0.3001925 0.06320663 -0.014026408 -0.16673353 -0.08512323 0.084222175 0.17713311 0.20920743 -0.15539892
960 -0.10036784 0.013987069 0.2768772 -0.35038647 -0.24376842 -0.13050179 0.18218969 -0.13021244 0.11420162 -0.21830039 -0.10856819 0.009023688 0.2771601 -0.042325255 0.11438428 -0.14333555 0.17612955 0.118066244 0.024943199 0.12633565 -0.19935884 -0.34011987 0.006831284 0.11441121 0.28055587 -0.09754465 0.34086776 -0.34253812 -0.036945734 0.07845783 0.22021747 -0.0018570423 0.23321642 0.11075983 -0.07437754 -0.24715303 -0.120304145 -0.32330588 -0.16767065 -0.16101505 0.06098807 0.19493006 -0.30031472 0.06304492 -0.08815658 -0.12658252 0.097986065 0.19209178 0.06707569 -0.0005531311 -0.054365467 -0.1739891 0.1583866 0.15166108 0.16764688 -0.1266854 -0.1519591 -0.043694053 -0.20535432 -0.13866268 -0.04578462 -0.18127011 0.1781323 0.047185738 0.16939667 0.057444494 0.017193777 -0.07060157 -0.06396667 -0.108071685 0.05224765 0.15318716 0.10923555 -0.16579275 -0.11370295 0.25496596 0.092993334 -0.11201691 0.12109972 -0.15939221 -0.18230271 0.07493333 0.1977259 -0.18018639 -0.029904647 0.1968831 0.2193542 0.27640274 0.0030958145 0.27769336 0.107432805 -0.08781518 0.1938725 -0.14906453 -0.41113248 -0.0749961 0.02168678 0.0008917983 -0.29676932 -0.44756153
1266 -0.3308109 0.09223678 0.04513175 -0.060854193 -0.028243395 -0.018641071 0.05498911 0.10416405 -0.2566044 0.3678485 0.042314436 -0.317826 0.04051218 -0.52768606 -0.19496235 0.045141485 0.00012403185 -0.052700415 0.19081949 -0.26252782 -0.22103557 -0.20998701 0.1096044 -0.1136461 0.531123 -0.114952326 -0.030799324 -0.043161523 -0.052776814 0.16755462 0.3909469 0.17596635 0.3354039 -0.092334345 0.019389885 -0.0731876 -0.13562964 0.20279735 0.11864536 0.094932646 -0.0045846645 0.018989993 -0.16861892 0.042355802 0.14802918 0.15156457 -0.058244422 0.019844852 -0.1631992 -0.04979339 0.16258906 -0.161108 0.03552295 -0.0110141905 -0.23234525 -0.21144678 -0.14379956 -0.06451816 0.35705814 -0.1424183 -0.17790166 0.26097262 0.23087525 -0.03444815 0.20612279 0.047913074 -0.03517803 0.10247039 0.058137238 0.08615292 -0.034902725 -0.008078418 0.28933656 0.18326774 0.024532175 0.16162325 -0.11773619 -0.03382729 -0.073438264 -0.029339802 -0.046303544 0.31103942 0.037787054 -0.0720877 0.1674402 0.30115855 0.077381305 -0.2031363 -0.108469896 0.35345265 -0.06635234 -0.15474916 0.37523976 0.018426262 -0.08611888 0.28592634 -0.120611995 -0.110473305 -0.28833088 0.04152328
1135 -0.07105785 0.27722675 -0.33309707 0.050124906 0.03964222 0.023532383 -0.09296842 0.49239877 -0.06836446 0.31805655 -0.031014042 -0.00036310338 0.20331877 -0.119204395 0.13328294 -0.5059438 -0.0955125 0.16062312 0.119293325 -0.3319178 -0.11430537 -0.110580295 -0.07182929 0.018896222 0.31853938 -0.023660636 0.039246842 -0.21253833 0.15903378 0.29319847 0.17040285 -0.008932537 -0.3418345 0.085586816 -0.0585822 0.22201213 -0.17564686 -0.193962 0.22483514 -0.26026103 0.0055582686 -0.07119598 0.17277123 -0.0924815 0.12580977 -0.11024677 0.13061422 0.18720366 -0.10775885 0.27495456 0.27266032 0.12003983 -0.34668627 -0.014908254 -0.07021165 0.4373045 0.332667 -0.39564088 -0.26360357 -0.23938991 -0.08055541 0.25002939 -0.19991495 -0.07492816 0.12533619 -0.02298616 -0.11551244 -0.27808854 -0.297064 0.14830495 0.27984768 -0.35714877 0.053214487 0.058505163 -0.043315765 -0.08201373 -0.43118638 0.08944781 -0.29477534 -0.07730472 -0.074477404 0.031510413 -0.010593187 -0.29070365 -0.11276837 0.25761092 -0.186802 0.2629273 0.017771775 -0.2980336 0.20117487 -0.20494728 0.24372435 -0.13887 0.15175734 -0.19338304 0.58412385 0.15401176 -0.5898877 -0.3907797
1100 -0.08102256 -0.032611262 -0.16240364 0.17010666 0.30836862 0.20110299 0.06938866 0.19318534 0.3446078 -0.3625217 -0.10090654 0.009012564 0.2511412 -0.16451105 0.03186074 0.1022637 0.18913613 -0.19928418 0.15968968 0.2137795 -0.5049994 -0.37415954 0.06305129 0.21665476 0.18420467 -0.20774418 0.3394063 -0.0052086045 0.024528863 -0.19820493 -0.19634908 -0.12981464 0.42161074 -0.3388566 -0.081593186 0.26717213 0.13693732 -0.112509854 -0.1046365 -0.39412168 -0.15222661 -0.17284088 0.45956966 -0.24699163 0.25790337 -0.010905057 -0.031276893 -0.21786022 -0.10630455 0.21314837 0.25070626 0.037392262 -0.2069786 0.16656572 0.06902469 -0.33845532 0.28097537 -0.2314588 -0.18694629 0.10280334 -0.16939841 -0.4299514 0.061859526 -0.3103897 0.09617866 0.07172349 0.223353 0.1859882 0.017125176 0.13952975 0.27304462 0.16128048 0.039947543 -0.089073464 -0.36656296 0.06862419 -0.12841481 0.34915847 -0.1831396 0.18076847 0.03010776 0.08817695 0.31111315 -0.03633736 0.032531545 -0.33124593 0.18003203 0.26503202 0.3171441 -0.17268223 0.58841807 -0.14606196 0.24725367 -0.08026042 0.41335315 0.025472939 0.059384 -0.025366457 0.10533075 -0.08302581
1153 -0.6574139 0.2701976 0.018821316 0.13502255 0.10118897 0.22389649 -0.055554546 0.3642125 -0.18696679 -0.21812044 -0.17842202 -0.050377537 -0.030985415 0.10562623 -0.3922485 -0.40483263 0.20787144 -0.086130254 -0.40977642 -0.17710423 0.17212091 -0.37391853 -0.042080633 0.214494 0.18290983 -0.16335188 -0.23164016 -0.31356135 0.21624665 0.15111388 -0.0004901886 -0.3015826 0.043634113 0.05459307 -0.34610415 0.054283835 0.37689772 -0.33461285 -0.36834452 0.075151704 0.1724671 0.06225804 -0.18387145 -0.06871495 0.4824589 -0.091730975 0.05764698 -0.15451041 0.6807226 -0.15477052 0.43336123 0.1703394 0.20645238 -0.24838768 -0.29548243 -0.28270474 -0.22197026 -0.23604144 -0.06426615 -0.48288164 0.15554388 0.06573017 0.28100485 -0.053549524 0.008116114 -0.27113116 0.043725267 0.22297026 -0.16510381 0.008951288 -0.16600987 0.29315153 -0.18835492 -0.28032053 -0.07364282 0.24769293 -0.1585981 0.39039716 -0.1609997 0.13026637 -0.10775118 -0.050636694 0.27304804 0.03228817 0.038056847 0.3148603 0.004284853 0.074312665 0.21553478 0.40938863 0.070756264 -0.10828366 0.4459306 0.047061738 -0.016716672 0.36380747 0.09434097 0.037307892 0.050183192 0.080632284
937 -0.112522975 -0.22166908 -0.28823608 -0.22228411 0.0019371808 0.12366197 0.22495212 -0.08749052 0.14616956 -0.19503678 -0.31070814 -0.22157039 -0.029746626 -0.23667492 -0.2531245 -0.19479784 0.249314 -0.26367524 0.2553751 -0.06469111 -0.37505358 -0.17969386 -0.20685181 0.25497386 -0.20754294 -0.057470508 -0.18138133 0.100007296 0.27306563 0.14364995 -0.09925456 -0.26041362 0.013217264 -0.3615143 0.036065537 0.31954128 -0.14818989 -0.38788778 0.14961219 -0.086157374 -0.0295917 0.19752851 -0.01137726 -0.2317821 0.0017801225 -0.1685313 0.24770388 -0.11592662 0.57390565 -0.035355855 -0.019286374 -0.022592714 -0.16904429 0.2206544 -0.20201965 0.17847289 -0.07576227 -0.48827532 0.034793857 0.19727771 -0.037239723 0.16573535 -0.105021715 -0.032790475 0.03245211 -0.028311746 -0.21669845 0.08908624 -0.18807323 0.05862379 0.29979706 0.09800386 0.30390972 -0.10952101 0.25435722 0.3242793 0.17102422 0.12741518 -0.20258294 -0.13787185 -0.22519358 0.020739803 -0.20924759 -0.40881512 0.047651194 0.25809053 -0.091414 0.082714505 -0.19756314 -0.10193031 0.14148523 -0.2914528 0.393914 0.18195038 -0.089393936 0.14800604 0.20539391 0.05263478 -0.07093646 -0.22820102
731 -0.09981038 -0.05297517 -0.124349244 -0.4204877 -0.18386772 -0.27488154 0.024801003 0.2563025 0.17256038 0.086825594 0.17330608 0.017326938 -0.27018487 -0.09174282 -0.09719292 -0.44594267 -0.29410812 0.056770485 0.026059229 0.20679745 -0.021792263 -0.21293008 0.110057555 0.32236218 -0.29496688 0.29430127 -0.060111947 0.18597476 0.15501513 -0.18025436 -0.014791333 -0.42095584 0.13444646 0.04900354 0.1621999 0.26096573 0.29874966 0.364558 -0.0001887594 0.17787583 0.031201838 0.33178207 0.1385699 0.26243672 0.58346194 -0.064981155 0.25078493 0.0095460415 -0.029916989 0.4864192 -0.02569902 0.10986614 -0.24603164 -0.12043204 0.6051751 -0.34475526 0.29446787 0.031287584 0.5179142 0.101761065 0.043189175 -0.0030332336 0.16765118 0.4537899 0.19979069 0.14483799 0.14140622 0.121330075 -0.027687384 0.13516577 -0.066040635 -0.20995699 0.092749275 -0.16459224 -0.018241495 0.14933239 -0.12500854 0.20748337 -0.15887117 0.14059417 0.05501926 0.24200892 0.09582442 -0.34699896 0.18771358 -0.0066366154 -0.13413428 -0.068525545 -0.035746276 -0.10199563 0.2161617 -0.24566936 0.07223797 -0.13580504 -0.08112538 0.08384703 0.07625393 -0.01919107 0.05599904 -0.15663445
1057 -0.028644921 0.035979066 -0.047168516 -0.061482288 -0.0973011 -0.21517268 -0.048883926 -0.0077700373 0.08603456 0.17586452 -0.018209679 -0.060704242 -0.21469621 -0.07290692 0.2570161 -0.22453667 -0.051333677 -0.17342454 0.4762642 -0.16953403 -0.10039881 -0.04588388 -0.13675863 0.17821948 0.06593488 0.16944923 0.15273242 -0.07295083 -0.13715295 -0.14024465 0.18242174 -0.3752986 0.15268432 0.013677245 -0.1611166 0.09576116 0.15180458 0.2144206 -0.15448028 -0.19366501 0.43923157 0.22148357 -0.14131866 0.1826408 0.6733792 -0.10028749 0.2190864 0.016673483 -0.048495457 0.024145668 0.029366272 -0.025037734 -0.19738819 0.033366334 0.21879281 -0.2486539 0.040229484 0.11598626 0.32175374 -0.057485558 -0.1073909 0.17746705 0.12990546 0.18319206 0.047354534 -0.0019099509 0.18107522 0.122073345 -0.034163944 0.0075041843 -0.2915413 -0.2916812 0.10084791 -0.23805986 -0.076938145 0.40935212 0.040647022 -0.276039 -0.21645498 -0.14968468 0.12102163 -0.122226045 -0.13961715 -0.03802833 0.23766313 0.37256396 -0.003818717 0.23719932 0.08235203 0.26228282 0.022654193 -0.23064929 0.27035472 -0.10257871 -0.32733214 0.068079256 0.26620054 0.45809984 0.21119466 -0.12143018
1120 0.032171525 0.00056047976 0.1514163 -0.25078905 -0.188098 -0.40333053 -0.17302638 0.07711255 -0.04049783 -0.20644107 -0.15197164 -0.26849973 -0.06273281 -0.082567245 -0.035528976 0.24227194 0.22513682 -0.1255322 0.060682368 -0.15593106 0.10546886 -0.13933705 0.43252525 0.12292721 -0.091929175 -0.10358998 -0.11068783 -0.09753191 0.012833939 -0.050670087 -0.077718854 -0.050501075 0.121085875 -0.21848844 -0.12032416 -0.060171783 0.11207029 -0.024615668 0.30836552 -0.081718065 0.10193455 -0.007007022 -0.1037283 0.23914772 0.47943288 -0.07562929 -0.03295451 -0.117677025 0.255375 -0.15369114 -0.13408154 -0.17993917 -0.04436571 -0.020267898 0.14751084 -0.3018902 -0.11711106 -0.079850145 0.26518747 -0.15330261 -0.26236895 -0.07167399 0.24742025 -0.03691239 0.058470085 0.20558089 -0.1197516 0.13082416 0.17276941 0.05165824 0.280012 0.19638506 0.006522322 0.010018691 -0.21710853 0.074452475 -0.15290286 0.13124393 0.31300452 -0.16577801 0.105402 -0.00072895666 0.093699604 -0.29835406 0.065088965 0.44956312 -0.05887061 0.16211332 -0.21297973 0.07087039 0.19738322 -0.34486407 0.31298864 -0.1996512 0.01023705 0.114080355 0.14757207 0.25826377 -0.2720562 -0.22148775
450 0.03888652 0.061575215 0.016880827 0.110506855 0.061476402 0.16875778 -0.11174351 0.27136177 -0.11018634 0.37569237 -0.20655264 -0.053568836 0.08359916 0.30716076 -0.08731104 0.07526108 0.09131961 0.194598 0.1592977 -0.41867703 0.14242445 -0.34636036 -0.15074936 0.44743106 0.16008285 0.00985381 -0.054836664 0.3499837 -0.007982632 0.04242582 0.03019106 0.19916399 0.19764516 -0.13154005 -0.16023633 0.008867353 0.10755982 0.052218832 0.09961684 -0.14129433 0.16680458 0.20622864 0.30903926 -0.02899405 -0.092235014 -0.018348137 -0.01448974 -0.18096592 -0.1102136 0.31367996 0.39990312 -0.2344915 0.18156303 -0.6120966 0.14658485 -0.09637243 0.013387225 -0.115849055 -0.11497474 -0.12692784 -0.090640835 0.02241627 0.05877315 0.11169871 -0.08327196 -0.14932929 -0.13249516 -0.110824354 -0.16945265 0.11853486 0.023905307 0.35726854 0.07638594 -0.18878445 0.019587616 0.45792037 0.10081623 -0.04621282 -0.16511202 0.102997325 0.20448722 -0.0315315 0.19220619 0.061602242 0.32593793 -0.17364694 -0.2100437 0.26400557 -0.048732553 0.32921726 0.0958553 -0.04952968 0.38632646 -0.15237965 0.13118313 0.26708797 -0.24026045 0.16072488 -0.03712712 -0.1337793
363 -0.25121123 0.27998894 0.143819 -0.0642737 -0.4429091 0.1313455 -0.012815521 -0.067001946 0.15150067 0.17480358 0.07986833 -0.027408412 -0.06843462 0.015072945 -0.08389249 -0.25313765 -0.08335272 -0.0201513 0.16434762 -0.1863528 0.0027461308 -0.07428436 0.2554069 0.25266275 0.09135393 -0.10285311 0.026395295 0.3520713 0.3171923 0.1569389 0.32406625 -0.01733068 0.056629054 -0.27337116 0.014669493 0.023846926 -0.20507863 0.07972982 -0.11605263 -0.43328923 -0.1369447 -0.0064792805 -0.15867339 -0.10826653 -0.11673314 -0.15265687 0.14274167 0.1740834 0.0056528896 0.18021274 0.07071351 0.24940641 0.060889296 -0.5018588 -0.11343087 -0.1453249 -0.14763533 0.17277475 0.015755525 0.19290005 0.28632358 0.13094293 0.05725046 -0.18800095 0.4068139 0.05589235 -0.04002722 -0.2044035 -0.3426105 0.24576294 -0.0011440356 -0.16413741 0.117451854 -0.040716477 0.26591247 0.03413632 -0.24309199 0.032656662 -0.31026077 -0.037821632 -0.3413003 0.1018309 0.055412382 -0.045355972 -0.0290595 0.06757579 -0.13416274 0.45434722 -0.08928323 -0.029614763 0.14132275 -0.14360915 0.029456869 -0.13035549 0.26086363 0.12073137 0.075164154 0.11110236 0.06751851 0.19582413
751 0.19875476 -0.3026559 0.09493176 -0.045741517 0.13044927 -0.18341395 -0.26623902 0.022398314 0.042938467 0.33733097 0.08119805 0.24657132 -0.043914896 -0.14962623 0.044964235 -0.27563676 0.17636749 0.14319864 0.060528517 -0.25050074 0.35184526 -0.38473853 -0.011045064 -0.31780714 -0.03441852 0.15800802 -0.07302773 -0.11491125 -0.118645795 0.052725516 0.28907558 -0.109418236 -0.100326814 -0.1322682 0.13798788 0.03526219 0.06966206 -0.12821029 -0.00441498 -0.008551344 -0.03945217 0.06287483 -0.27371296 -0.1130833 0.061402377 0.05173849 -0.026001573 0.09532935 0.11432535 0.10317727 0.1847037 -0.16437884 -0.16037676 0.10039859 -0.0017135824 -0.39233467 0.2304978 -0.18235333 -0.10397526 -0.07505526 0.07083602 0.13007571 -0.11010523 0.18600686 -0.012816182 0.20859157 0.5415614 -0.006328153 -0.036894348 0.17311576 -0.19463775 0.17213179 0.14869472 -0.10081464 0.05116073 0.0051169693 0.12384238 0.057558455 0.09769433 -0.27284083 -0.12716852 0.0005156765 0.198199 -0.509769 0.35561776 -0.16343646 0.23433833 0.19621742 0.30203542 -0.25861934 0.08589505 -0.604266 -0.094520904 -0.17169511 0.1263732 0.23567252 0.08654486 0.22158836 0.012886441 -0.10371999
2165 -0.1409329 -0.11340844 -0.27617466 -0.22012497 -0.014207245 0.07135329 0.16447252 0.34739533 0.119846515 0.37785766 -0.31406385 -0.06848139 -0.17410941 -0.3511072 0.07948612 -0.15733045 0.2560518 -0.05425268 0.19060443 -0.007892782 0.06412115 -0.76533335 0.24370597 0.18917526 -0.024126552 0.23121725 0.40830004 -0.45685777 -0.04647491 -0.35391748 0.054733798 -0.016940229 0.21550053 -0.061614297 0.15609702 -0.024829019 -0.093125895 -0.24049209 -0.12606646 0.005837603 -0.105431885 0.13752717 -0.11892168 0.10113456 -0.13181113 -0.19299392 -0.27133387 -0.1189842 0.12009167 -0.098986894 -0.051405013 0.12710224 -0.12429986 -0.16113353 -0.22416176 -0.05280191 -0.4744518 -0.2610136 0.049695496 0.034152 -0.22596246 0.40308142 -0.13983601 0.0782566 0.31926054 0.5064176 -0.22564203 -0.33421695 0.026104076 0.4254502 -0.17254533 -0.046158288 0.076447226 -0.27613446 -0.05396423 0.67539173 0.027950883 -0.33036292 -0.47548544 0.03071153 0.031789724 0.14921112 0.2029098 0.04137917 0.14219695 0.2609708 -0.15290846 -0.09408358 -0.037949525 0.59923327 0.41768944 -0.07315601 -0.17985955 -0.32468918 -0.21077724 -0.24017692 -0.49190158 -0.08860084 -0.10989055 -0.028047778
1311 -0.08346741 -0.16527222 0.08372092 -0.05416378 0.3460108 0.010986501 0.1364513 0.10592609 -0.046165884 -0.051332604 0.11042219 -0.025998294 0.19466916 -0.4764439 -0.11097515 -0.08619252 0.21741605 -0.055623844 -0.025504213 0.0190703 -0.13681425 -0.05138549 0.3217803 -0.1491543 0.04986421 0.26719224 -0.038516268 -0.23908296 -0.029975105 -0.014199723 0.2740033 -0.20146967 0.004414843 0.07139554 0.15919031 0.088285446 -0.3340541 0.17809452 0.1808456 -0.13028711 0.056107726 -0.25337926 -0.20886447 0.04567279 0.09530889 -0.22593494 0.39542148 0.057478335 -0.35231274 -0.03218386 -0.3216038 -0.29947403 -0.17108698 -0.08288858 -0.12866165 -0.029833756 0.37094748 -0.30602333 0.20110975 -0.16320883 0.17407222 -0.19489656 0.17148285 -0.13772583 0.30937257 0.019683396 0.019737601 -0.41387853 -0.23547913 -0.14657857 -0.10919716 0.19681741 0.1547689 0.22594075 -0.22891317 0.43292066 -0.21734695 -0.17912956 -0.4129686 -0.0030599127 -0.0011823055 0.10619409 0.39919177 -0.25906175 -0.38079068 -0.30696332 -0.014498067 0.23254061 -0.43374053 0.21251236 0.10355358 0.19793606 0.045246292 0.08473389 0.11983011 0.02627606 0.36763528 0.037236337 -0.31653464 -0.14572555
1301 0.2992605 -0.14137119 0.38811684 -0.07214627 0.017582744 -0.04082987 -0.07131378 0.42315018 0.05329424 -0.17346442 -0.12974404 -0.1754358 0.039333895 -0.15597667 -0.16680121 -0.06999281 0.04510059 0.04241543 0.22926483 -0.22513951 0.13695683 0.065421365 -0.3489087 0.26849622 0.4903102 -0.09304249 -0.1459998 0.4006534 0.05576358 0.19364685 -0.1433031 -0.20335174 0.11907038 -0.27588096 -0.17159401 -0.004273033 0.24196392 0.05528716 -0.007941807 -0.0808255 -0.051213432 0.0779123 0.06674236 0.024326604 0.14687167 -0.14423896 0.00879389 -0.029478818 -0.065178044 -0.12236106 -0.016546888 -0.058307245 -0.03605307 -0.19653083 0.08484753 0.11109552 -0.2066864 -0.26040626 0.010818874 -0.0690752 -0.23103662 -0.046125412 -0.071917936 -0.070953734 -0.29914138 0.17358726 0.23577937 -0.024003286 0.08681577 0.22981249 -0.053635463 0.42924058 0.114685684 -0.24593964 0.123990685 0.4499378 0.33227614 -0.27835703 -0.22657575 0.21654545 0.2393464 -0.3272689 0.25498775 0.07817958 0.34864935 -0.109916806 0.061026916 0.26412243 -0.25886163 -0.04705207 0.2419292 0.016305078 0.49095818 -0.15722552 0.26160157 0.08999738 -0.08931815 0.18396455 -0.08599837 -0.17071107
850 0.029146357 0.28601822 -0.22603199 -0.6352811 -0.08741916 -0.17062864 0.22952177 -0.07782684 -0.14431357 0.051460173 -0.08484181 0.27314976 -0.06921135 -0.3769634 -0.01168606 -0.03700357 -0.06706078 -0.28611317 0.32873878 -0.142777 0.15956095 -0.2278156 -0.025135295 -0.3007939 -0.074022956 -0.03546204 0.15564765 -0.26459882 -0.008636912 -0.3961334 0.11455013 -0.24500224 0.13210505 0.050816517 -0.28156337 -0.06390921 0.0026747372 0.058566693 -0.37286612 0.16432051 -0.29547983 0.16211173 0.014811872 0.04372402 0.14312224 -0.14470556 0.17090078 0.23182113 0.07776306 -0.13822576 0.21781321 -0.3180727 -0.30423456 -0.024064701 -0.14636286 -0.13603663 -0.101824984 -0.2731162 0.29861608 -0.07378441 0.18683867 0.18974285 0.15495713 -0.026404355 -0.27057323 -0.07620124 0.09141971 0.052574936 0.23911956 0.057793487 0.014833735 0.15775894 0.0054905075 -0.20671596 -0.12447183 0.33531192 -0.022731174 -0.19907849 -0.00075499073 -0.07925908 -0.18337391 0.3859102 0.3828121 -0.14314966 -0.15454231 0.027306082 -0.028496573 0.43578032 0.11569912 0.035830174 -0.074415065 -0.27888173 0.47957462 0.1820525 0.15965255 -0.300302 -0.18743062 0.085729346 -0.2761121 -0.3166764
976 0.3509691 0.21250464 -0.33194682 0.14939597 -0.18013512 0.25537634 0.5231973 0.004599827 -0.41512728 0.232421 0.12006039 -0.079799585 0.16033927 -0.19935389 -0.20250092 -0.17981565 0.14312498 0.049140032 0.008164116 -0.10679499 -0.3737757 -0.44354424 0.26112103 -0.13210897 0.3261166 0.15190877 -0.038418137 -0.21086769 0.25567862 0.03983013 0.10762521 0.075578235 -0.14417648 -0.19841728 0.27171177 -0.25712395 0.15902618 0.2531565 -0.14878924 -0.30993977 -0.06481225 0.19186957 0.115336366 -0.044647895 0.07789814 0.20674895 0.13312687 -0.31201595 0.07079537 0.2351428 -0.24429035 0.071963504 -0.24017346 0.3428168 0.03663672 0.18504326 0.23886266 -0.25529417 0.07332824 0.04974692 0.20357156 -0.3700104 -0.015929272 0.10178033 0.0033229035 -0.07882917 0.1231088 0.14566569 0.033745237 -0.07994332 -0.17716013 0.31389403 -0.074756734 -0.26043445 0.137776 0.17467155 -0.46706304 0.4019116 -0.011935407 -0.25346023 -0.10004665 -0.34033537 0.08309406 0.008859626 0.107621446 -0.1703017 -0.42078128 0.63660085 0.21785781 0.04821955 -0.22933228 -0.16118991 -0.31662875 -0.3052383 -0.037347227 -0.050963372 -0.045327377 0.19926965 -0.29841664 -0.0070931995
